tree
version=v4
num_class=1
num_tree_per_iteration=1
label_index=0
max_feature_idx=37
objective=binary sigmoid:1
feature_names=Age BMI Sex Height Weight Length_of_Stay Management Severity Diagnosis_Presumptive Alvarado_Score Paedriatic_Appendicitis_Score Appendix_on_US Migratory_Pain Lower_Right_Abd_Pain Contralateral_Rebound_Tenderness Coughing_Pain Nausea Loss_of_Appetite Body_Temperature WBC_Count Neutrophil_Percentage Neutrophilia RBC_Count Hemoglobin RDW Thrombocyte_Count Ketones_in_Urine RBC_in_Urine WBC_in_Urine CRP Dysuria Stool Peritonitis Psoas_Sign Ipsilateral_Rebound_Tenderness US_Performed US_Number Free_Fluids
feature_infos=[-3.2241756124706149:2.0039364654230778] [-2.5764932585155038:4.4564612154043708] [-1.0308764574996672:0.97004834354782343] [-4.9943763898263178:2.3027077775991693] [-2.2700854521793103:3.4514341277284859] [-1.2708366795631989:9.2933844867564961] [-0.73203141738347854:4.5470413041319917] [-2.3767490759886218:0.42074277428047158] [-5.5458067526336006:3.2351319918251074] [-2.8761661321228829:1.9289764302315726] [-2.7721769420556872:2.4702151571419058] [-1.3473363779380843:0.74220515112221996] [-0.62608480466152705:1.5972277118921911] [-4.235492172037854:0.23610007040075856] [-0.77625002580618485:1.2882447236783492] [-0.61619067603086386:1.6228742804766356] [-1.2329482107219996:0.81106407495770816] [-1.0508934790820166:0.95157122953463069] [-11.306859419370207:2.9996841941701775] [-1.8860000938823724:4.7096410413960133] [-3.3175356814905514:1.8808055867632518] [-0.92444545892561436:1.0817295821455974] [-2.2783466223584465:17.741934991303427] [-3.5886293120044952:15.690461126458827] [-0.4749173275174447:18.136468457431683] [-2.511856283157174:3.7882453051233882] [-2.5189131929009556:0.59239262836998774] [-2.5635173317404352:0.43498235448122174] [-3.5272968983204716:0.32234319734360517] [-0.54620823137096441:5.71455082645301] [-0.26148818018424536:3.8242646351945884] [-2.5717169670071889:0.51533124883050574] [-2.8298413491107519:0.61111359873792492] [-0.6534069476745763:1.5304398025746759] [-0.2322991616556164:4.3047938394306415] none [-1.5615017789806009:2.1095593094590197] [-0.81377763704416906:1.2288369137695085]
tree_sizes=1820 1722 1822 1726 1726 1619 1721 1840 1727 1620 1835 1840 1418 1626 1731 1836 1946 2266 2372 2373 2258 2271 2277 2041 2272 2802 2590 2694 2691 2595 2492 2712 2802 3029 3109 2904 2822 3138 2904 3149 3233 3229 2937 3349 3162 3141 2918 3059 2918 3168 2975 3270 3052 3276 2926 3180 3252 3303 3047 2963 3166 2732 3068 3300 3054 2838 3536 3282 3527 3066 3059 3436 2955 3185 3290 3494 2953 3515 3293 3307 3068 3189 3526 2979 3073 3538 3290 3168 3235 3304 3205 3420 3514 3076 3333 3318 3528 3522 3224 3317

Tree=0
num_leaves=16
num_cat=0
split_feature=6 11 36 36 19 3 22 3 19 16 0 19 1 0 29
split_gain=236.738 135.576 37.593 51.7634 17.7599 8.19109 5.97829 4.1008 1.19433 1.29126 0.510826 0.415046 0.117296 5.68434e-14 2.84217e-14
threshold=1.0000000180025095e-35 1.0000000180025095e-35 -0.80318663495443687 -0.092150307976358869 -0.37332456285698795 -0.36938994989692658 0.065067843980587806 -0.46650941543460372 -0.52365256594025567 1.0000000180025095e-35 0.44499040614795549 0.20919644909067575 0.079131844751099037 0.92561237832509824 -0.36103085078743835
decision_type=2 2 2 2 2 2 2 2 2 2 2 2 2 2 2
left_child=1 13 7 12 6 -6 -5 -3 9 -2 -9 -7 -4 14 -1
right_child=8 2 3 4 5 11 -8 10 -10 -11 -12 -13 -14 -15 -16
leaf_value=-0.13846879638324233 -0.55351511401093079 -0.4290012187226242 -0.1384687963832423 -0.26424040778557217 -0.37563812074192143 -0.51201048224816192 -0.39787274490054758 -0.55351511401093079 -0.55351511401093079 -0.48434072773964937 -0.51201048224816192 -0.55351511401093068 -0.15922111226462679 -0.13846879638324233 -0.13846879638324247
leaf_weight=20.961515933275223 5.0596762597560865 4.818739295005801 6.2643610835075361 7.9509198367595673 5.0596762597560856 4.8187392950058001 5.782487154006958 7.7099828720092756 46.018960267305374 5.782487154006958 4.8187392950057983 4.8187392950057983 4.8187392950057983 8.9146676957607252 6.9871719777584103
leaf_count=87 21 20 26 33 21 20 24 32 191 24 20 20 20 37 29
internal_value=-0.385504 -0.287843 -0.384683 -0.330807 -0.402269 -0.478671 -0.320507 -0.507399 -0.54648 -0.516622 -0.537552 -0.532763 -0.147492 -0.138469 -0.138469
internal_weight=150.586 93.7245 56.8611 39.5137 28.4306 14.6972 13.7334 17.3475 56.8611 10.8422 12.5287 9.63748 11.0831 36.8634 27.9487
internal_count=625 389 236 164 118 61 57 72 236 45 52 40 46 153 116
is_linear=0
shrinkage=1


Tree=1
num_leaves=15
num_cat=0
split_feature=6 11 9 36 36 19 3 0 19 19 16 3 1 0
split_gain=195.523 104.52 31.3116 26.8199 40.2438 7.01049 7.97426 4.09302 1.27681 1.08872 1.15867 0.0011684 2.84217e-14 1.42109e-14
threshold=1.0000000180025095e-35 1.0000000180025095e-35 -1.1943662352988231 -0.80318663495443687 -0.092150307976358869 -0.37332456285698795 -0.36938994989692658 0.38937244136767263 0.22798744947608435 -0.52365256594025567 1.0000000180025095e-35 0.11095767695158594 -0.61810395310586619 0.67985234804551964
decision_type=2 2 2 2 2 2 2 2 2 2 2 2 2 2
left_child=1 12 -3 8 -5 7 -7 -6 11 10 -2 -4 -1 -11
right_child=9 2 3 4 5 6 -8 -9 -10 13 -12 -13 -14 -15
leaf_value=0.21485138813725924 -0.15749254148926184 0.1772279244250049 -0.16092979290120321 0.20445988246621971 0.080176139411469158 0.0088622460204755248 -0.14768204529365642 -0.04796869861150118 -0.097122998171878666 -0.15749254148926178 -0.090956858439689064 -0.1588187942173955 0.21485138813725924 -0.15749254148926178
leaf_weight=7.9617748260498038 4.8675541430711728 8.5198928117752057 4.9335477054119092 8.7020590901374764 5.1221385747194255 5.0690708756446776 9.0875703692436343 4.8551523238420486 4.6997409015893927 36.158973634243011 5.6614351272583008 5.5956427305936813 30.105461061000824 8.1125902384519559
leaf_count=32 21 35 21 35 21 21 39 20 20 156 24 24 121 35
internal_value=-0.000297607 0.0867336 0.0005428 -0.0307761 0.0200954 -0.0463816 -0.0916282 0.0178183 -0.140463 -0.150619 -0.121716 -0.159808 0.214851 -0.157493
internal_weight=149.453 94.6521 56.5848 48.0649 32.836 24.1339 14.1566 9.97729 15.2289 54.8006 10.529 10.5292 38.0672 44.2716
internal_count=625 389 236 201 136 101 60 41 65 236 45 45 153 191
is_linear=0
shrinkage=0.1


Tree=2
num_leaves=16
num_cat=0
split_feature=6 11 36 36 19 3 36 3 19 16 1 20 19 1 0
split_gain=163.778 83.8834 25.9449 32.7812 11.9065 6.06111 5.47251 3.54914 1.03001 1.07228 0.493784 0.410198 0.117853 2.84217e-14 1.42109e-14
threshold=1.0000000180025095e-35 1.0000000180025095e-35 -0.80318663495443687 -0.092150307976358869 -0.37332456285698795 -0.36938994989692658 0.90626706380381072 -0.46650941543460372 -0.52365256594025567 1.0000000180025095e-35 0.20861499515798784 0.6014974874128477 -0.67398056902352388 0.31714945531437905 0.41607534038898653
decision_type=2 2 2 2 2 2 2 2 2 2 2 2 2 2 2
left_child=1 13 7 12 6 -6 -5 -3 9 -2 -9 -7 -4 -1 -10
right_child=8 2 3 4 5 11 -8 10 14 -11 -12 -13 -14 -15 -16
leaf_value=0.19264617091061187 -0.14911490267049421 -0.031971221257332753 0.195270286112698 0.13307498777690804 0.0079623376236777257 -0.10750989737775951 0.00332456624518162 -0.15146379834539692 -0.14911490267049418 -0.083917130217384311 -0.10923881452424347 -0.15034129672735219 0.17484210121205332 0.19264617091061187 -0.14911490267049418
leaf_weight=19.721221193671227 4.6386380642652494 4.6710377633571651 6.4957612007856369 5.1478595882654199 5.0773211270570728 4.4903862029314059 8.8201964944601041 7.1532607376575452 32.249578922986984 5.52970290184021 4.5191164761781693 4.4537129402160645 4.9962872862815839 18.473042637109756 9.9399387091398221
leaf_count=79 21 20 26 21 21 20 36 32 146 24 20 20 20 74 45
internal_value=-0.000483963 0.0784518 0.000322308 0.0441841 -0.014203 -0.0793009 0.0511435 -0.105637 -0.142229 -0.113659 -0.135116 -0.128838 0.186389 0.192646 -0.149115
internal_weight=146.377 94.0192 55.8249 39.4815 27.9895 14.0214 13.9681 16.3434 52.3579 10.1683 11.6724 8.9441 11.492 38.1943 42.1895
internal_count=625 389 236 164 118 61 57 72 236 45 52 40 46 153 191
is_linear=0
shrinkage=0.1


Tree=3
num_leaves=15
num_cat=0
split_feature=6 11 9 36 36 29 17 19 0 19 16 0 0 0
split_gain=138.632 69.1997 23.507 19.4319 27.28 5.51188 3.6889 1.18551 1.11282 1.00159 1.01458 0.00332692 2.84217e-14 1.42109e-14
threshold=1.0000000180025095e-35 1.0000000180025095e-35 -1.1943662352988231 -0.80318663495443687 -0.092150307976358869 -0.53739026086698682 1.0000000180025095e-35 0.22798744947608435 -0.27695556855995479 -0.52365256594025567 1.0000000180025095e-35 0.11531909087037152 1.2212075551377253 0.91052968907460097
decision_type=2 2 2 2 2 2 2 2 2 2 2 2 2 2
left_child=1 12 -3 7 -5 -6 -7 11 -8 10 -2 -4 -1 -11
right_child=9 2 3 4 5 6 8 -9 -10 13 -12 -13 -14 -15
leaf_value=0.17641212695888009 -0.14231103142964174 0.15182213308795245 -0.14772918496366402 0.16697791290008926 0.041670170455241462 -0.0035091018592368984 -0.064297977159345224 -0.083253750872103696 -0.12697532921079524 -0.14231103142964172 -0.077550219087293037 -0.14399675346926982 0.17641212695888009 -0.14231103142964172
leaf_weight=32.164493680000305 4.3872837424278242 8.6160276234149915 4.3460538834333402 8.6234155148267693 5.9973279535770372 5.7078665792942163 4.7712554782628995 4.4435250312089911 6.9720188081264514 34.053678572177887 5.3926151990890503 5.3010086566209793 5.4016706943511954 5.8497116565704337
leaf_count=131 21 35 20 35 25 25 20 20 31 163 24 25 22 28
internal_value=-0.000588496 0.0718793 0.000192415 -0.0281086 0.014896 -0.0410337 -0.069456 -0.125992 -0.10151 -0.135282 -0.106602 -0.145678 0.176412 -0.142311
internal_weight=142.028 92.3447 54.7785 46.1625 32.0719 23.4485 17.4511 14.0906 11.7433 49.6833 9.7799 9.64706 37.5662 39.9034
internal_count=625 389 236 201 136 101 76 65 51 236 45 45 153 191
is_linear=0
shrinkage=0.1


Tree=4
num_leaves=15
num_cat=0
split_feature=6 11 9 36 36 29 3 19 4 19 16 1 0 0
split_gain=118.257 58.2757 19.1541 16.6677 22.7298 4.56362 3.4015 2.99779 1.15 0.993785 0.975096 0.00266769 1.42109e-14 1.42109e-14
threshold=1.0000000180025095e-35 1.0000000180025095e-35 -1.1943662352988231 -0.80318663495443687 -0.092150307976358869 -0.53739026086698682 -0.36938994989692658 -0.33574256208617076 -0.60400483137417238 -0.52365256594025567 1.0000000180025095e-35 -0.004873880848497221 0.39429573051244032 0.93976537283210826
decision_type=2 2 2 2 2 2 2 2 2 2 2 2 2 2
left_child=1 12 -3 8 -5 -6 -7 -8 -4 10 -2 -10 -1 -11
right_child=9 2 3 4 5 6 7 -9 11 13 -12 -13 -14 -15
leaf_value=0.16405418062880986 -0.13669852964720064 0.13672279801567402 -0.076845885463764516 0.15458019824457675 0.037267417308246523 -0.0033926358158978629 -0.036005773850172007 -0.14128087601998221 -0.13787856028042619 -0.13669852964720061 -0.071735560032477413 -0.141300886140385 0.16405418062880986 -0.13669852964720061
leaf_weight=21.419799327850342 4.1242050826549512 8.6102457493543607 4.3012693077325812 8.3948891907930356 6.033214643597602 6.0224362164735821 4.6871587783098239 6.3958135247230565 4.5755512565374366 32.208077788352966 5.2541406154632568 4.535351261496543 14.993859529495237 5.3025493919849387
leaf_count=90 21 35 20 35 25 25 20 31 23 164 24 22 63 27
internal_value=-0.000656375 0.0664502 8.74895e-05 -0.0260877 0.0136275 -0.0375113 -0.0638864 -0.0967584 -0.119463 -0.129419 -0.100304 -0.139582 0.164054 -0.136699
internal_weight=136.859 89.9696 53.5559 44.9457 31.5335 23.1386 17.1054 11.083 13.4122 46.889 9.37835 9.1109 36.4137 37.5106
internal_count=625 389 236 201 136 101 76 51 65 236 45 45 153 191
is_linear=0
shrinkage=0.1


Tree=5
num_leaves=14
num_cat=0
split_feature=6 11 9 36 36 9 4 29 19 19 11 4 1
split_gain=101.539 49.7973 15.7627 14.3504 19.1418 4.13864 4.49055 1.47141 1.20978 1.00061 2.12504 0.00357463 7.10543e-15
threshold=1.0000000180025095e-35 1.0000000180025095e-35 -1.1943662352988231 -0.80318663495443687 -0.092150307976358869 0.2471765334075133 -0.41625302771201228 -0.3786667917953932 0.22798744947608435 -0.52365256594025567 -1.0000000180025095e-35 -0.29782496694049587 -0.8133831937890702
decision_type=2 2 2 2 2 2 2 2 2 2 2 2 2
left_child=1 -1 -3 8 -5 6 -6 -7 11 10 -2 -4 -11
right_child=9 2 3 4 5 7 -8 -9 -10 12 -12 -13 -14
leaf_value=0.15436253998422675 -0.039127969367596979 0.12434958373798349 -0.13731410947740771 0.14461146330077743 0.074951891828752115 -0.12860143357141313 -0.0440206975490436 -0.048540402851190517 -0.069206729023410879 -0.1320096677323411 -0.13728338519899291 -0.13321913428277285 -0.1320096677323411
leaf_weight=34.906579926609993 3.9034496694803238 8.524327874183653 3.9175258278846732 8.0917047411203367 5.086178630590438 4.3305845707654953 8.4320782721042686 4.8850948065519315 4.1256864666938773 10.469949290156363 5.0710996091365796 4.6763068437576285 24.613564997911453
leaf_count=153 19 35 20 35 21 20 37 23 20 57 26 25 134
internal_value=-0.000704382 0.0619478 -5.6004e-06 -0.0243492 0.0125267 -0.0344864 0.000742162 -0.0861623 -0.113717 -0.124388 -0.094591 -0.135086 -0.13201
internal_weight=131.034 86.9761 52.0695 43.5452 30.8256 22.7339 13.5183 9.21568 12.7195 44.0581 8.97455 8.59383 35.0835
internal_count=625 389 236 201 136 101 58 43 65 236 45 45 191
is_linear=0
shrinkage=0.1


Tree=6
num_leaves=15
num_cat=0
split_feature=6 11 36 36 10 20 36 3 29 19 11 1 18 0
split_gain=87.597 43.0727 13.394 16.8294 7.57537 4.91896 3.60152 3.15986 1.72426 1.02149 1.98479 0.522622 0.126533 1.42109e-14
threshold=1.0000000180025095e-35 1.0000000180025095e-35 -0.80318663495443687 -0.092150307976358869 -0.9373397073365296 0.40978561085313281 1.3846174480550342 -0.46650941543460372 -0.39630273280334805 -0.52365256594025567 -1.0000000180025095e-35 0.20861499515798784 -0.2811397172056247 0.92561237832509824
decision_type=2 2 2 2 2 2 2 2 2 2 2 2 2 2
left_child=1 13 7 12 -5 6 -6 -3 -7 10 -2 -9 -4 -1
right_child=9 2 3 4 5 8 -8 11 -10 -11 -12 -13 -14 -15
leaf_value=0.14658657580715734 -0.03583463072102485 -0.012306833645222609 0.15058325475043469 0.10326786360784784 0.039073906117322227 -0.14310712842610757 -0.069116778741312904 -0.13499097001813559 -0.051405753375044605 -0.12805111699196711 -0.13254742881474182 -0.087108228328868442 0.12825040500481166 0.14658657580715734
leaf_weight=25.149561047554016 3.8394533395767212 4.2378276586532584 5.5732073336839676 4.7922588735818854 8.8300613462925011 4.0551159232854843 4.7223678380250922 5.7716207653284055 4.1477684080600721 32.675089031457901 4.7438952028751356 3.7673086673021317 4.6567783057689649 8.0218427479267103
leaf_count=116 19 20 25 20 38 20 20 32 20 191 26 20 21 37
internal_value=-0.0007278 0.0580406 -5.91006e-05 0.0314444 -0.0105478 -0.0356191 0.00137467 -0.0841587 -0.0967386 -0.119987 -0.0892864 -0.11608 0.140417 0.146587
internal_weight=124.984 83.7257 50.5543 36.7776 26.5476 21.7553 13.5524 13.7768 8.20288 41.2584 8.58335 9.53893 10.23 33.1714
internal_count=625 389 236 164 118 98 58 72 40 236 45 52 46 153
is_linear=0
shrinkage=0.1


Tree=7
num_leaves=16
num_cat=0
split_feature=6 11 9 36 36 29 3 19 18 19 11 0 0 0 24
split_gain=75.8294 37.6545 12.0246 10.929 13.9554 3.25052 3.08607 2.7474 1.25649 1.04708 1.86796 0.00333647 7.10543e-15 3.55271e-15 3.55271e-15
threshold=1.0000000180025095e-35 1.0000000180025095e-35 -1.1943662352988231 -0.80318663495443687 -0.092150307976358869 -0.53739026086698682 -0.36938994989692658 -0.33574256208617076 0.57940425954868091 -0.52365256594025567 -1.0000000180025095e-35 0.11531909087037152 -0.03405576267465487 -1.3674991969457804 -1.0000000180025095e-35
decision_type=2 2 2 2 2 2 2 2 2 2 2 2 2 2 2
left_child=1 -1 -3 8 -5 -6 -7 -8 11 10 -2 -4 13 -11 -14
right_child=9 2 3 4 5 6 7 -9 -10 12 -12 -13 14 -15 -16
leaf_value=0.14023455292990869 -0.032789114996701028 0.11035973883306649 -0.13164223425722268 0.12933384607534579 0.03324219554554373 0.0048357410026501207 -0.028564566349938647 -0.1326615672331016 -0.060168536546168917 -0.12467960997743824 -0.12854399182017409 -0.12740149935632639 -0.12467960997743835 -0.12467960997743835 -0.12467960997743821
leaf_weight=31.3026063144207 3.7797174751758575 8.2093884050846082 3.5682718455791456 7.3537371009588233 5.9829380065202704 5.8578622043132809 4.5838654190301922 5.6734320670366314 4.0431567281484604 4.2865822613239315 4.4191736578941327 3.8645757734775543 8.8906891345977765 13.494796007871626 3.6515330374240902
leaf_count=153 19 35 20 35 25 25 20 31 22 27 26 23 56 85 23
internal_value=-0.000736995 0.0545134 -9.47389e-05 -0.0222499 0.0100068 -0.0297025 -0.0530715 -0.0861418 -0.105033 -0.116107 -0.0844007 -0.129437 -0.12468 -0.12468 -0.12468
internal_weight=118.962 80.4398 49.1372 40.9278 29.4518 22.0981 16.1152 10.2573 11.476 38.5225 8.19889 7.43285 30.3236 17.7814 12.5422
internal_count=625 389 236 201 136 101 76 51 65 236 45 43 191 112 79
is_linear=0
shrinkage=0.1


Tree=8
num_leaves=15
num_cat=0
split_feature=6 11 9 36 36 4 19 9 19 19 11 0 0 0
split_gain=65.888 33.1362 10.0292 9.47308 11.9673 2.86922 4.3101 2.72524 1.29478 1.07622 1.76747 0.00357095 7.10543e-15 7.10543e-15
threshold=1.0000000180025095e-35 1.0000000180025095e-35 -1.1943662352988231 -0.80318663495443687 -0.092150307976358869 -0.41625302771201228 -0.35453356247157936 0.2471765334075133 0.22798744947608435 -0.52365256594025567 -1.0000000180025095e-35 0.11531909087037152 -0.33686630623863245 0.835732141226596
decision_type=2 2 2 2 2 2 2 2 2 2 2 2 2 2
left_child=1 12 -3 8 -5 7 -7 -6 11 10 -2 -4 -1 -11
right_child=9 2 3 4 5 6 -8 -9 -10 13 -12 -13 -14 -15
leaf_value=0.1349700303457449 -0.029974415138548063 0.10181231222142306 -0.12779293268939571 0.12335583380360471 0.063282210657590945 -0.010284340094133933 -0.13286283117803097 -0.042065369328955077 -0.052415554482718243 -0.12178665855380372 -0.12513026554787438 -0.12330895539142986 0.13497003034574495 -0.12178665855380373
leaf_weight=8.0625161826610583 3.7242096960544586 8.0187094509601575 3.3155454546213132 6.9595268666744223 5.1033533811569232 7.0090817213058463 4.8558032661676434 4.7329642027616501 3.6865788698196411 23.796121984720234 4.1020545661449423 3.8250439167022705 21.308078482747078 4.2597996145486823
leaf_count=42 19 35 20 35 21 30 27 23 20 162 26 25 111 29
internal_value=-0.000751059 0.0514726 -0.000149029 -0.0208541 0.00925016 -0.0273433 -0.0604506 0.0125919 -0.100543 -0.11264 -0.0798494 -0.125391 0.13497 -0.121787
internal_weight=112.759 76.8772 47.5066 39.4879 28.6607 21.7012 11.8649 9.83632 10.8272 35.8822 7.82626 7.14059 29.3706 28.0559
internal_count=625 389 236 201 136 101 57 44 65 236 45 45 153 191
is_linear=0
shrinkage=0.1


Tree=9
num_leaves=14
num_cat=0
split_feature=6 11 10 36 36 9 3 29 18 25 19 11 0
split_gain=57.3996 29.3417 8.94665 7.22475 10.3208 6.67233 4.25345 4.23163 1.58235 1.47715 1.10796 1.67844 7.10543e-15
threshold=1.0000000180025095e-35 1.0000000180025095e-35 -0.9373397073365296 -0.80318663495443687 0.64298894533995921 -1.1943662352988231 -0.46650941543460372 -0.4915368142463043 0.57940425954868091 -0.12041863898186886 -0.52365256594025567 -1.0000000180025095e-35 -1.5760626667806761
decision_type=2 2 2 2 2 2 2 2 2 2 2 2 2
left_child=1 -1 5 8 9 -3 -6 -8 -4 -5 11 -2 -12
right_child=10 2 3 4 6 -7 7 -9 -10 -11 12 -13 -14
leaf_value=0.13055478619676117 -0.027375301979678343 0.15440677462506236 -0.12973499029967148 0.12331576293007396 0.038817187145796211 -0.013255889808546596 -0.01249583359554105 -0.128796865151519 -0.045303316765069296 0.043542476637777945 -0.11928853855746538 -0.12219796291593593 -0.11928853855746552
leaf_weight=27.427429854869843 3.6728282868862152 5.7082748711109161 5.9321279972791654 5.2152584493160248 4.6843027174472818 4.0630715489387494 6.0265429466962805 6.5059133023023614 3.5468659400939941 4.1828989982604998 2.9821162223815945 3.7961442172527304 22.908074617385864
leaf_count=153 19 26 38 26 20 21 28 35 21 21 22 26 169
internal_value=-0.000759091 0.0487343 -0.000194304 -0.0231742 0.00352588 0.0846901 -0.0424828 -0.0728706 -0.0981422 0.0878105 -0.1095 -0.0755694 -0.119289
internal_weight=106.652 73.2927 45.8653 36.0939 26.6149 9.77135 17.2168 12.5325 9.47899 9.39816 33.3592 7.46897 25.8902
internal_count=625 389 236 189 130 47 83 63 59 47 236 45 191
is_linear=0
shrinkage=0.1


Tree=10
num_leaves=16
num_cat=0
split_feature=6 11 8 10 36 36 3 29 19 19 11 25 0 0 0
split_gain=50.0582 26.1664 7.54129 5.10501 5.03653 6.04634 5.08736 4.1064 1.63972 1.14145 1.59746 0.0196442 7.10543e-15 7.10543e-15 3.55271e-15
threshold=1.0000000180025095e-35 1.0000000180025095e-35 2.0643401592306136 -0.9373397073365296 -0.80318663495443687 0.64298894533995921 -0.57150343223209266 -0.4915368142463043 0.22798744947608435 -0.52365256594025567 1.0000000180025095e-35 -0.40941412468281202 1.184982593916587 0.835732141226596 -0.024971261208407012
decision_type=2 2 2 2 2 2 2 2 2 2 2 2 2 2 2
left_child=1 12 3 -3 8 -6 -7 -8 11 10 -2 -5 -1 14 -11
right_child=9 2 -4 4 5 6 7 -9 -10 13 -12 -13 -14 -15 -16
leaf_value=0.12681514094859889 -0.024977800170432093 0.062785751050575489 0.13114035924108949 -0.13161179150563271 0.069207066755957794 0.05539619262824888 -0.011274871951938261 -0.12551556268880806 -0.036962718731870063 -0.11711957665400417 -0.11966338762684142 -0.11987482685981626 0.12681514094859889 -0.11711957665400424 -0.11711957665400424
leaf_weight=21.342624664306644 3.6254232972860363 7.2675244659185401 3.9789181947708121 3.0002145245671272 7.4089968055486706 4.2541013509035137 6.0120433270931244 6.6012520939111692 3.2367834448814392 14.103030212223535 3.5038858950138092 2.7177764773368818 4.1684813797473899 3.619361735880374 6.1154732778668395
leaf_count=128 19 35 22 20 37 18 28 37 19 113 26 20 25 29 49
internal_value=-0.000759344 0.0460797 -0.000227802 -0.0131345 -0.0297379 -0.00609353 -0.0391693 -0.0710635 -0.0938379 -0.10662 -0.0715135 -0.126033 0.126815 -0.11712 -0.11712
internal_weight=100.956 69.9887 44.4776 40.4987 33.2312 24.2764 16.8674 12.6133 8.95477 30.9672 7.12931 5.71799 25.5111 23.8379 20.2185
internal_count=625 389 236 214 179 120 83 65 59 236 45 40 153 191 162
is_linear=0
shrinkage=0.1


Tree=11
num_leaves=16
num_cat=0
split_feature=6 11 8 36 36 33 3 22 36 19 11 0 0 0 1
split_gain=43.6966 23.463 6.59382 4.40325 5.21891 3.41801 2.63536 2.62278 1.85761 1.17594 1.5221 0.610156 7.10543e-15 3.55271e-15 3.55271e-15
threshold=1.0000000180025095e-35 1.0000000180025095e-35 2.0643401592306136 -0.80318663495443687 1.1176311870776072 1.0000000180025095e-35 -0.41401240703585912 -0.031368965333775423 0.6578215153942607 -0.52365256594025567 1.0000000180025095e-35 0.53592312786173413 -0.51842380046392744 -0.58399846460922678 -1.0000000180025095e-35
decision_type=2 2 2 2 2 2 2 2 2 2 2 2 2 2 2
left_child=1 12 3 6 5 8 -3 -6 -5 10 -2 -8 -1 -11 -14
right_child=9 2 -4 4 7 -7 11 -9 -10 13 -12 -13 14 -15 -16
leaf_value=0.1236213662562294 -0.022768928229566041 0.00060522515707987128 0.12731553482628996 0.048697873741028429 -0.0035573874829185948 0.10143552351598678 -0.1247544604785277 -0.097361761664669991 -0.040194889010028025 -0.11522750156352482 -0.11746081811336165 -0.063785824802607097 0.12362136625622935 -0.11522750156352496 0.12362136625622953
leaf_weight=4.7915891110897091 3.5818111747503307 3.8194087073206902 3.7028009742498389 5.087574511766439 7.6876916810870171 6.5898166596889487 4.4899977967143041 4.8681835830211622 4.3701552972197533 7.9134412631392541 3.2268302738666534 2.5873206555843353 5.8735608458519044 13.991881653666491 12.983660817146296
leaf_count=31 19 21 22 25 37 32 33 25 23 69 26 18 38 122 84
internal_value=-0.00076815 0.0435481 -0.000283113 -0.0122444 0.00836315 0.0461465 -0.0663383 -0.0399274 0.00762299 -0.103945 -0.0676464 -0.102466 0.123621 -0.115228 0.123621
internal_weight=95.5657 66.8518 43.2029 39.5001 28.6034 16.0475 10.8967 12.5559 9.45773 28.714 6.80864 7.07732 23.6488 21.9053 18.8572
internal_count=625 389 236 214 142 80 72 62 48 236 45 51 153 191 122
is_linear=0
shrinkage=0.1


Tree=12
num_leaves=12
num_cat=0
split_feature=6 11 9 36 36 22 25 4 19 11 19
split_gain=38.1779 21.1244 6.16122 5.76845 7.67274 2.08185 2.92995 1.50909 1.21072 1.4507 0.00227223
threshold=1.0000000180025095e-35 1.0000000180025095e-35 -1.1943662352988231 -0.80318663495443687 -0.092150307976358869 0.045780482117715494 -0.49611277039309504 -0.63866670281949434 -0.52365256594025567 1.0000000180025095e-35 -0.053877556305043227
decision_type=2 2 2 2 2 2 2 2 2 2 2
left_child=1 -1 -3 7 -5 6 -6 -4 9 -2 -9
right_child=8 2 3 4 5 -7 -8 10 -10 -11 -12
leaf_value=0.12087453248755214 -0.020736448427827937 0.084468481673550033 -0.031039414137216944 0.1085120956950601 -0.060770469098754692 -0.063720454164621007 0.038502068281227438 -0.11599231167745386 -0.11357018488635373 -0.11553785606388528 -0.11997739835517779
leaf_weight=21.85942143201828 3.5417880713939693 7.1266261339187613 3.0694771036505699 5.7085137814283362 4.6933016926050195 7.6864693760871878 8.1112209707498586 2.9250132143497467 20.095118306577206 2.9658484160900116 2.8008386343717557
leaf_count=153 19 35 19 35 23 39 39 25 191 26 21
internal_value=-0.000750076 0.0411119 -0.000281893 -0.0175411 0.00598264 -0.0225807 0.00211524 -0.0876137 -0.10143 -0.0639421 -0.117942
internal_weight=90.5836 63.9809 42.1215 34.9948 26.1995 20.491 12.8045 8.79533 26.6028 6.50764 5.72585
internal_count=625 389 236 201 136 101 62 65 236 45 46
is_linear=0
shrinkage=0.1


Tree=13
num_leaves=14
num_cat=0
split_feature=6 11 10 9 36 36 29 3 37 19 19 11 0
split_gain=33.4155 19.0434 5.69848 5.31975 4.11682 6.35838 2.92203 2.1933 1.83801 1.64255 1.24511 1.38209 3.55271e-15
threshold=1.0000000180025095e-35 1.0000000180025095e-35 -0.9373397073365296 -1.1943662352988231 -0.80318663495443687 -0.092150307976358869 -0.53739026086698682 -0.57150343223209266 1.0000000180025095e-35 -0.37332456285698795 -0.52365256594025567 1.0000000180025095e-35 -1.5760626667806761
decision_type=2 2 2 2 2 2 2 2 2 2 2 2 2
left_child=1 -1 3 -3 8 -6 -7 -8 -4 -9 11 -2 -12
right_child=10 2 4 -5 5 6 7 9 -10 -11 12 -13 -14
leaf_value=0.11849786919968441 -0.018868774662762253 0.1401573862344834 -0.12452135882893052 -0.0168062493380098 0.10257389501581066 0.038326991995463355 0.0094913386831707892 -0.029526919392466645 -0.024590239451771082 -0.1116740400327781 -0.11211331819531581 -0.11385225543726676 -0.11211331819531599
leaf_weight=20.155429467558861 3.5051380246877697 4.9132516533136368 4.5308965891599646 3.8520324900746328 4.8615932911634436 5.2893248945474651 4.4640351682901391 4.3964366316795349 3.0997194871306419 5.4532399401068687 2.1201728731393841 2.7212982624769211 16.286782525479794
leaf_count=153 19 26 35 21 32 23 19 20 24 36 22 26 169
internal_value=-0.000733355 0.038954 -0.000282874 0.0711774 -0.0197988 0.000203051 -0.0251851 -0.0486547 -0.0839272 -0.0750074 -0.0990375 -0.0603818 -0.112113
internal_weight=85.6494 61.016 40.8605 8.76528 32.0952 24.4646 19.603 14.3137 7.63062 9.84968 24.6334 6.22644 18.407
internal_count=625 389 236 47 189 130 98 75 59 56 236 45 191
is_linear=0
shrinkage=0.1


Tree=14
num_leaves=15
num_cat=0
split_feature=6 11 10 9 3 36 36 33 19 23 22 3 16 0
split_gain=29.2902 17.184 4.82638 4.73322 3.79992 5.20818 7.58497 4.32586 1.27848 1.12634 0.943626 0.484335 0.0189485 3.55271e-15
threshold=1.0000000180025095e-35 1.0000000180025095e-35 -0.9373397073365296 -1.1943662352988231 -0.83398847422581524 -0.80318663495443687 0.64298894533995921 1.0000000180025095e-35 -0.52365256594025567 0.052206112525449259 -0.24352994582537588 0.21070199290920086 -1.0000000180025095e-35 0.85934190490636442
decision_type=2 2 2 2 2 2 2 2 2 2 2 2 2 2
left_child=1 13 3 -3 -4 12 9 11 10 -7 -2 -8 -6 -1
right_child=8 2 4 -5 5 6 7 -9 -10 -11 -12 -13 -14 -15
leaf_value=0.11643080311712271 -0.011303870104920892 0.13517988785718024 0.053875751856319154 -0.015160599250793164 -0.12525668794207243 0.035302795798428897 -0.085868951292019657 0.0058879329070678273 -0.11082860732225008 0.1164924748041081 -0.091608368288423309 -0.13978076311414458 -0.11372099534894289 0.11643080311712276
leaf_weight=13.817447528243067 2.5741408467292786 4.6008324325084686 5.8765099644660976 3.8436112478375417 2.5563636347651482 3.5845654010772732 3.4504017010331136 5.8512234911322594 16.838460527360439 3.2651534825563431 3.3906537592411068 3.2229268848896027 3.2143615111708668 4.727021522819995
leaf_count=114 17 26 28 21 20 21 21 28 191 20 28 20 31 39
internal_value=-0.000713255 0.0370322 -0.000276062 0.0667502 -0.0185215 -0.035441 -0.0106029 -0.056875 -0.0967359 0.0740046 -0.0569525 -0.111906 -0.118831 0.116431
internal_weight=80.8137 58.0104 39.4659 8.44444 31.0215 25.145 19.3743 12.5246 22.8033 6.84972 5.96479 6.67333 5.77073 18.5445
internal_count=625 389 236 47 189 161 110 69 236 41 45 41 51 153
is_linear=0
shrinkage=0.1


Tree=15
num_leaves=16
num_cat=0
split_feature=6 11 10 9 3 36 36 33 9 19 1 3 16 0 0
split_gain=25.639 15.5574 4.09602 4.23593 3.15658 4.7397 6.35741 3.81087 2.31097 1.3263 0.947857 0.435966 0.0142917 3.55271e-15 3.55271e-15
threshold=1.0000000180025095e-35 1.0000000180025095e-35 -0.9373397073365296 -1.1943662352988231 -0.83398847422581524 -0.80318663495443687 0.64298894533995921 1.0000000180025095e-35 -1.0000000180025095e-35 -0.52365256594025567 -0.38480907633346845 0.31832086012662697 1.0000000180025095e-35 0.01864642991221931 1.0418144760332779
decision_type=2 2 2 2 2 2 2 2 2 2 2 2 2 2 2
left_child=1 13 3 -3 -4 12 8 11 -7 10 -2 -8 -6 -1 -11
right_child=9 2 4 -5 5 6 7 -9 -10 14 -12 -13 -14 -15 -16
leaf_value=0.1146249247899087 -0.0087873697029141034 0.13094931794462636 0.048054882536765708 -0.013673669351460818 -0.12270099725851145 0.12841835439387481 -0.083800477371559753 0.0052929865766393963 0.010513549149085623 -0.10969260923053757 -0.090380334147177416 -0.1368311650968195 -0.1122546800115492 0.11462492478990874 -0.10969260923053757
leaf_weight=7.123859882354739 2.6048953086137772 4.2904928997159004 5.9266379326581982 3.8358520492911321 2.3587907254695919 3.2852041125297546 3.5952238813042623 5.8576663881540298 3.3652817308902767 13.613585881888865 3.139992609620097 2.7254243865609169 2.9445147216320038 9.9066176488995534 1.7721827775239933
leaf_count=64 20 26 28 21 20 20 23 28 21 169 25 18 31 89 22
internal_value=-0.000707052 0.0351424 -0.00030664 0.0626834 -0.0173359 -0.0333953 -0.00987521 -0.0528152 0.0687561 -0.0943837 -0.0533838 -0.106667 -0.116901 0.114625 -0.109693
internal_weight=76.3462 55.2156 38.1851 8.12634 30.0587 24.1321 18.8288 12.1783 6.65049 21.1307 5.74489 6.32065 5.30331 17.0305 15.3858
internal_count=625 389 236 47 189 161 110 69 41 236 45 41 51 153 191
is_linear=0
shrinkage=0.1


Tree=16
num_leaves=17
num_cat=0
split_feature=6 11 10 9 4 33 18 1 23 20 18 6 19 19 18 0
split_gain=22.4368 14.1087 3.47785 3.80926 2.89907 3.33056 4.06843 3.53174 2.86409 2.65879 1.39317 1.1068 0.0313245 3.151e-07 7.10543e-15 3.55271e-15
threshold=1.0000000180025095e-35 1.0000000180025095e-35 -0.9373397073365296 -1.1943662352988231 1.0164376586946249 1.0000000180025095e-35 0.79454025373726112 -0.19304822143400849 -0.22519087220064196 0.40978561085313281 1.6550842304915665 1.907504943374257 -0.6363985682527068 1.0000000180025095e-35 -1.0000000180025095e-35 0.13570513315449037
decision_type=2 2 2 2 2 2 2 2 2 2 2 2 2 2 2 2
left_child=1 14 3 -3 5 6 8 -7 -4 -10 11 12 -2 -14 -1 -15
right_child=10 2 4 -5 -6 7 -8 -9 9 -11 -12 -13 13 15 -16 -17
leaf_value=0.11304104403517767 -0.11995367689165624 0.12732405391337365 -0.11736680918796748 -0.012330485212480129 -0.1086511510698224 -0.012016879265230486 0.065480694929393124 0.11629191420298379 0.020948948886740391 -0.090008974063057301 -0.011432335636482592 -0.039057160273397597 -0.10873494335533558 -0.10868563912871441 0.11304104403517767 -0.10868563912871437
leaf_weight=10.511807560920714 3.1054323017597243 3.9869938641786575 4.8092295527458218 3.8287226408720008 3.0387867614626876 4.8154439330101013 3.5141228586435309 3.8687295466661435 5.5834103301167541 3.5217154249548912 1.9328986927866925 2.4895448535680762 1.4770473912358291 6.9852335378527624 5.1028192043304434 3.6029099300503731
leaf_count=103 27 26 30 21 22 31 22 23 33 28 22 23 20 95 50 49
internal_value=-0.000695401 0.0333392 -0.000326188 0.0589108 -0.0162081 -0.00545026 -0.0306599 0.0451437 -0.0549406 -0.0219678 -0.0920339 -0.100856 -0.110997 -0.108692 0.113041 -0.108686
internal_weight=72.1748 52.5818 36.9672 7.81572 29.1514 26.1127 17.4285 8.68417 13.9144 9.10513 19.5931 17.6602 15.1706 12.0652 15.6146 10.5881
internal_count=625 389 236 47 189 167 113 54 91 61 236 214 191 164 153 144
is_linear=0
shrinkage=0.1


Tree=17
num_leaves=20
num_cat=0
split_feature=6 11 36 36 29 17 3 19 25 36 4 20 18 18 17 5 19 0 0
split_gain=19.5674 12.8549 3.23682 5.29647 2.60265 2.66183 1.83913 1.51111 1.83136 1.30852 0.455787 0.23874 7.16276e-05 1.50374e-06 1.40155e-06 2.40516e-06 3.28093e-12 3.55271e-15 8.88178e-16
threshold=1.0000000180025095e-35 1.0000000180025095e-35 -0.80318663495443687 -0.092150307976358869 -0.53739026086698682 1.0000000180025095e-35 -0.46650941543460372 -0.52365256594025567 -0.23601683326224612 1.7331828443311192 0.55427937275700012 -1.005932862203222 1.6550842304915665 0.14913227117152802 1.0000000180025095e-35 0.88113429876118354 0.30315145101771829 0.338289905660974 0.27262266185043876
decision_type=2 2 2 2 2 2 2 2 2 2 2 2 2 2 2 2 2 2 2
left_child=1 17 6 11 -5 -6 -3 8 -2 -7 -8 -4 13 14 -9 -16 -15 -1 -18
right_child=7 2 3 4 5 9 10 12 -10 -11 -12 -13 -14 16 15 -17 18 -19 -20
leaf_value=0.11164714611330546 0.0028190164549101553 0.0026201223453633559 0.077479480082496485 0.041573451685952147 0.020505562441892715 -0.097201433519939526 -0.11605734437239718 -0.10779105659792768 -0.11845365535848094 -0.017320248843177972 -0.053402729623832461 0.1185025108880967 -0.10858690129781429 -0.10779095222425938 -0.10795848153361132 -0.10779112958512355 -0.10779112958512359 0.11164714611330545 -0.10779112958512355
leaf_weight=7.7553657069802266 3.2064254656434059 3.3320466205477715 2.469691313803196 7.504687413573266 5.9662495180964497 5.3052094429731369 3.1872021406888944 1.8104830011725406 2.0358542203903225 3.3427193984389305 1.8264009729027746 3.3333798646926871 1.3836789578199375 1.3410835638642309 2.3878471106290822 1.341108977794647 3.2857169955968857 6.5406698733568192 1.4081644266843794
leaf_count=83 26 20 20 35 32 30 34 27 19 21 18 26 19 20 35 20 49 70 21
internal_value=-0.000666665 0.0313375 -0.000319073 0.0160136 -0.00629479 -0.0308761 -0.0549631 -0.0895797 -0.0442776 -0.0663246 -0.093233 0.101044 -0.107907 -0.107826 -0.107863 -0.107898 -0.107791 0.111647 -0.107791
internal_weight=68.764 50.5636 36.2676 27.9219 22.1189 14.6142 8.34565 18.2004 5.24228 8.64793 5.0136 5.80307 12.9581 11.5744 5.53944 3.72896 6.03496 14.296 4.69388
internal_count=625 389 236 164 118 83 72 236 45 51 52 46 191 172 82 55 90 153 70
is_linear=0
shrinkage=0.1


Tree=18
num_leaves=21
num_cat=0
split_feature=6 11 10 9 3 36 36 0 0 29 19 24 16 18 18 37 25 19 0 0
split_gain=17.1087 11.6988 2.76714 3.4349 2.77117 3.83296 5.06286 2.21133 2.31729 2.05746 1.53923 1.51825 0.00832841 5.17398e-05 1.0889e-06 1.02472e-06 1.93475e-07 2.24887e-12 1.77636e-15 8.88178e-16
threshold=1.0000000180025095e-35 1.0000000180025095e-35 -0.9373397073365296 -1.1943662352988231 -0.83398847422581524 -0.80318663495443687 0.95447291648029065 0.85934190490636442 -0.055807111390245141 -0.4915368142463043 -0.52365256594025567 -0.044667325883878131 1.0000000180025095e-35 1.6550842304915665 0.14913227117152802 1.0000000180025095e-35 0.50092165527515919 0.30315145101771829 0.31295231307111743 -0.03405576267465487
decision_type=2 2 2 2 2 2 2 2 2 2 2 2 2 2 2 2 2 2 2 2
left_child=1 18 3 -3 -4 12 7 8 -7 -8 11 -2 -6 14 15 -12 -17 -16 -1 -19
right_child=10 2 4 -5 5 6 9 -9 -10 -11 13 -13 -14 -15 17 16 -18 19 -20 -21
leaf_value=0.11041674097034782 -0.0860828052565107 0.12407721558881364 0.046463009891862368 -0.012764914510011376 -0.11844030406305926 0.06479267387373748 -0.024292769351203645 0.11028120432210785 -0.053093710510956529 -0.12654040476406833 -0.10710869851157781 0.025382015831005356 -0.10976026153214813 -0.1077033199829734 -0.10699483218209982 -0.10699443453466084 -0.10704772776020262 -0.10699498601400306 0.11041674097034777 -0.10699498601400299
leaf_weight=7.006089970469473 3.0406068488955498 3.5995137616991997 5.8668399155139914 3.7404573336243621 2.0305472686886814 3.3882492408156422 4.528660275042057 2.9889280125498772 3.2832097560167339 3.4804953858256322 2.290981747210024 2.0430839508771923 2.4261578172445297 1.2617501765489567 1.2220298238098619 1.5274608656764033 1.2295641228556631 2.5052089989185329 6.0662486329674721 1.771977096796036
leaf_count=82 28 26 28 21 20 20 22 21 20 27 37 17 31 19 20 25 20 41 71 29
internal_value=-0.000645212 0.0295933 -0.000309363 0.0543423 -0.0146394 -0.0308409 -0.00993792 0.0388016 0.00677752 -0.068726 -0.0872926 -0.0412862 -0.113715 -0.107098 -0.107026 -0.107059 -0.107018 -0.106995 0.110417 -0.106995
internal_weight=65.2981 48.4054 35.3331 7.33997 27.9931 22.1262 17.6695 9.66039 6.67146 8.00916 16.8927 5.08369 4.45671 11.809 10.5472 5.04801 2.75702 5.49922 13.0723 4.27719
internal_count=625 389 236 47 189 161 110 61 40 49 236 45 51 191 172 82 45 90 153 70
is_linear=0
shrinkage=0.1


Tree=19
num_leaves=21
num_cat=0
split_feature=6 11 36 36 19 1 1 20 0 19 3 24 36 0 18 18 17 5 19 0
split_gain=14.954 10.6492 2.45009 4.3719 2.405 3.11847 2.17444 2.87325 2.30223 1.56397 1.53937 1.32734 0.706551 0.280233 3.74688e-05 7.90232e-07 7.46883e-07 1.28133e-06 1.72395e-12 3.55271e-15
threshold=1.0000000180025095e-35 1.0000000180025095e-35 -0.80318663495443687 -0.092150307976358869 -1.1813375794295535 -1.0304479817655663 -0.19304822143400849 0.23282080172108852 0.47052777591014039 -0.52365256594025567 -0.67649744902958175 -0.044667325883878131 -1.4409871472894011 0.71422474143923054 1.6550842304915665 0.14913227117152802 1.0000000180025095e-35 0.88113429876118354 0.30315145101771829 -0.82503011030242057
decision_type=2 2 2 2 2 2 2 2 2 2 2 2 2 2 2 2 2 2 2 2
left_child=1 19 10 13 -5 -6 7 -7 -8 11 -3 -2 -12 -4 15 16 -11 -18 -17 -1
right_child=9 2 3 4 5 6 8 -9 -10 14 12 -13 -14 -15 -16 18 17 -19 -20 -21
leaf_value=0.10932777601208897 -0.082560929903248328 0.010064506856849108 0.11684989632847372 0.078571248577896755 0.082418493164986881 -0.12052224674125196 0.063043960294279014 -0.0069457990281968571 -0.051613490733049008 -0.10628474499673901 -0.034630454406381322 0.022447105472661776 -0.11307616892890456 0.069841789667665785 -0.10691675634941532 -0.10628507032419354 -0.10641889680923443 -0.10628480621120387 -0.10628521146917934 0.10932777601208897
leaf_weight=1.5607999265193928 2.8626102693378925 2.7164874598383904 2.9353971406817427 2.9135182350873938 2.5997288078069714 4.8436497449874896 3.5238615497946801 4.1237304583191872 3.4813265204429626 1.5021374113857691 1.8330152370035646 2.0772610679268846 3.073103260248895 2.2327583283185959 1.1496482789516456 1.1127449199557302 1.9819932021200659 1.112703777849674 3.8946821913123131 10.379319511353968
leaf_count=20 28 16 25 15 12 23 19 25 24 27 18 17 38 21 19 20 35 20 70 133
internal_value=-0.000641876 0.0279973 -0.000333843 0.0139638 -0.00589928 -0.0191505 -0.0356821 -0.0682931 0.00606333 -0.0849816 -0.0503283 -0.0384041 -0.0837674 0.0965413 -0.106377 -0.106313 -0.106343 -0.106371 -0.106285 0.109328
internal_weight=61.9105 46.2167 34.2766 26.654 21.4858 18.5723 15.9726 8.96738 7.00519 15.6938 7.62261 4.93987 4.90612 5.16816 10.7539 9.60426 4.59683 3.0947 5.00743 11.9401
internal_count=625 389 236 164 118 103 91 48 43 236 72 45 56 46 191 172 82 55 90 153
is_linear=0
shrinkage=0.1


Tree=20
num_leaves=20
num_cat=0
split_feature=6 11 20 0 0 25 19 19 19 18 6 22 19 19 18 5 36 0 0
split_gain=13.0557 9.70744 2.35841 2.92092 5.57625 3.53933 3.58197 2.81447 1.99648 1.59773 1.36913 0.658126 0.0229808 3.95592e-06 1.40824e-10 5.33262e-11 4.38054e-11 1.77636e-15 8.88178e-16
threshold=1.0000000180025095e-35 1.0000000180025095e-35 0.40978561085313281 0.88281620991806065 0.37082142550074415 -0.49611277039309504 -0.7867265713359749 0.22798744947608435 0.30315145101771829 1.6550842304915665 1.907504943374257 0.14221729143207873 -0.6363985682527068 1.0000000180025095e-35 0.14913227117152802 0.88113429876118354 -0.81431106249516294 -0.32672444754314006 0.22311105688430419
decision_type=2 2 2 2 2 2 2 2 2 2 2 2 2 2 2 2 2 2 2
left_child=1 17 3 4 5 -3 -7 -8 -4 10 12 -5 -2 -14 15 16 -15 -1 -16
right_child=9 2 8 11 -6 6 7 -9 -10 -11 -12 -13 13 14 18 -17 -18 -19 -20
leaf_value=0.10836175965700708 -0.11640682742579728 -0.061850262283682317 0.0071377362529357977 0.10717538205593505 -0.10483589486905334 0.13675482473208886 -0.039506660030029506 0.089791166263622366 -0.084960795282776946 0.012525975247848079 -0.019478560692775551 0.039516884253325758 -0.10585971709526996 -0.10565072620005476 -0.10565145729281814 -0.10565111041459374 -0.10564979594774325 0.10836175965700712 -0.1056514568992296
leaf_weight=3.0620635077357292 2.6253566890954962 3.3973799832165232 4.3617137707769853 3.3106322437524787 4.1758324578404418 3.5827023275196526 4.0933470241725525 2.8595964089035988 5.1128132343292236 1.5731187909841526 2.0649823658168307 2.5412631705403328 1.0380963459610919 1.0124865807592871 2.8859211802482605 1.1644296236336229 1.0123375840485098 7.8331857174634916 1.2151246741414068
leaf_count=43 27 23 37 24 26 22 32 16 38 22 23 18 20 20 57 23 20 110 24
internal_value=-0.00062008 0.0263861 -0.00032651 0.0163742 -0.00347356 0.0269055 0.0555262 0.0136708 -0.0425621 -0.0826659 -0.0941684 0.0777938 -0.108249 -0.105677 -0.105651 -0.105651 -0.10565 0.108362 -0.105651
internal_weight=58.9224 44.3305 33.4353 23.9608 18.1089 13.933 10.5356 6.95294 9.47453 14.5919 13.0187 5.8519 10.9538 8.3284 7.2903 3.18925 2.02482 10.8952 4.10105
internal_count=625 389 236 161 119 93 70 48 75 236 214 42 191 164 144 63 40 153 81
is_linear=0
shrinkage=0.1


Tree=21
num_leaves=20
num_cat=0
split_feature=6 11 10 9 4 0 3 33 19 24 19 22 18 18 17 5 19 0 0
split_gain=11.3551 8.86966 2.05801 3.09088 2.70461 2.32899 2.76547 2.40239 1.70063 1.5255 1.22554 0.263047 0.00012419 2.72896e-06 2.53271e-06 4.28089e-06 2.43539e-11 1.77636e-15 4.44089e-16
threshold=1.0000000180025095e-35 1.0000000180025095e-35 -0.9373397073365296 -1.1943662352988231 1.0164376586946249 0.85934190490636442 -0.83398847422581524 1.0000000180025095e-35 -0.52365256594025567 -0.020081611504817288 -0.37332456285698795 -1.0000000180025095e-35 1.6550842304915665 0.14913227117152802 1.0000000180025095e-35 0.88113429876118354 0.30315145101771829 0.99484929912241638 0.27262266185043876
decision_type=2 2 2 2 2 2 2 2 2 2 2 2 2 2 2 2 2 2 2
left_child=1 17 3 -3 5 6 -4 10 9 -2 -8 -12 13 14 -10 -16 -15 -1 -18
right_child=8 2 4 -5 -6 -7 7 -9 12 -11 11 -13 -14 16 15 -17 18 -19 -20
leaf_value=0.10750303313519452 -0.078219951436858448 0.12098135403589282 0.041496115217186935 -0.014053279652847287 -0.1091556326592783 0.067403757381281557 -0.027261158242126521 0.012206020217389067 -0.10508427080107796 0.039535318740078061 -0.12261119460847399 -0.07572219029153221 -0.10629375193729491 -0.10508424587536332 -0.10535278282814596 -0.1050845131333837 -0.10508482899659344 0.10750303313519448 -0.10508482899659342
leaf_weight=7.7257824242115003 2.7083041593432426 3.1638072729110718 5.7805449515581158 3.6514361575245813 2.634172197431325 3.9813795723021022 3.3857462443411359 5.2486644200980654 1.2431310825049862 1.8527649156749237 3.1671024039387712 1.922838021069772 1.0583948530256746 0.92083403840661038 1.6799916103482249 0.9208775870501994 2.2562786415219311 2.207366406917572 0.9669765606522559
leaf_count=119 30 26 28 21 22 30 23 37 27 15 28 21 19 20 35 20 49 34 21
internal_value=-0.000586828 0.0246759 -0.000304089 0.0486332 -0.0130726 -0.00229614 -0.0165234 -0.0409606 -0.0801739 -0.0303862 -0.0738846 -0.104898 -0.105276 -0.105141 -0.105202 -0.105258 -0.105085 0.107503 -0.105085
internal_weight=56.4764 42.8688 32.9357 6.81524 26.1204 23.4863 19.5049 13.7244 13.6076 4.56107 8.47569 5.08994 9.04648 7.98809 3.844 2.60087 4.14409 9.93315 3.22326
internal_count=625 389 236 47 189 167 137 109 236 45 72 49 191 172 82 55 90 153 70
is_linear=0
shrinkage=0.1


Tree=22
num_leaves=20
num_cat=0
split_feature=6 11 36 36 22 23 23 19 36 4 24 36 4 18 18 37 25 19 0
split_gain=9.88862 8.10251 2.01253 3.70159 1.84315 2.10004 1.78343 1.69461 1.63653 1.52684 1.3074 0.684257 0.322098 9.0411e-05 1.99381e-06 1.85277e-06 3.57976e-07 1.79261e-11 1.77636e-15
threshold=1.0000000180025095e-35 1.0000000180025095e-35 -0.80318663495443687 -0.092150307976358869 0.045780482117715494 -0.22519087220064196 0.67634932815915427 -0.52365256594025567 1.1602748259837241 -0.83508397434298487 -0.020081611504817288 -1.4280086484918872 0.49939807630190691 1.6550842304915665 0.14913227117152802 -1.0000000180025095e-35 0.50092165527515919 0.30315145101771829 -0.82503011030242057
decision_type=2 2 2 2 2 2 2 2 2 2 2 2 2 2 2 2 2 2 2
left_child=1 18 9 12 5 8 -6 10 -5 -3 -2 -11 -4 14 15 -9 -17 -16 -1
right_child=7 2 3 4 6 -7 -8 13 -10 11 -12 -13 -14 -15 17 16 -18 -19 -20
leaf_value=0.10673827711032101 -0.07490109177191788 0.01460928987997712 0.11435227223699702 0.037267521153096901 -0.089740511220753938 0.066423873017449356 0.0072375604828440873 -0.10476165221310119 -0.055439512950059722 -0.032394683385097371 0.034643826858523005 -0.11262766188668645 0.060690279196041169 -0.10565908920713392 -0.10457708493862031 -0.10457633577955523 -0.10466371664908725 -0.10457760966729984 0.10673827711032109
leaf_weight=1.1828742176294325 2.5536068268120289 2.5349149145185947 2.8315108679234973 3.3459163308143607 4.0573021061718455 5.2428357526660063 3.5603443756699562 1.5988434068858624 4.4189038686454296 1.7076028138399122 1.9002232588827599 2.8156257234513715 1.8489470332860944 0.96313390508294094 0.83703961595892939 1.0461426042020301 0.84958337992429744 2.9299456998705864 7.8661135472357255
leaf_count=20 30 15 28 19 24 30 21 37 24 19 15 38 18 19 20 25 20 70 133
internal_value=-0.000570555 0.023087 -0.000301974 0.0128678 -0.00535142 0.0175252 -0.0444148 -0.0778452 -0.0154914 -0.0475198 -0.0281638 -0.0823382 0.0931539 -0.104749 -0.104628 -0.104682 -0.104615 -0.104577 0.106738
internal_weight=54.0914 41.4129 32.3639 25.3058 20.6253 13.0077 7.61765 12.6785 7.76482 7.05814 4.45383 4.52323 4.68046 8.22469 7.26155 3.49457 1.89573 3.76699 9.04899
internal_count=625 389 236 164 118 73 45 236 43 72 45 57 46 191 172 82 45 90 153
is_linear=0
shrinkage=0.1


Tree=23
num_leaves=18
num_cat=0
split_feature=6 11 9 3 36 36 29 22 19 24 24 1 18 18 17 5 19
split_gain=8.6099 7.3951 1.81756 3.52543 2.50381 3.12746 1.97018 1.91399 1.68239 1.12107 1.01588 0.218499 6.59347e-05 1.45934e-06 1.36619e-06 2.30832e-06 1.27014e-11
threshold=1.0000000180025095e-35 1.0000000180025095e-35 0.2471765334075133 -0.75524296162769844 -0.80318663495443687 0.55399352501415022 -0.53739026086698682 0.1807920151578242 -0.52365256594025567 -0.020081611504817288 -0.1675958977791828 -0.19304822143400849 1.6550842304915665 0.14913227117152802 1.0000000180025095e-35 0.88113429876118354 0.30315145101771829
decision_type=2 2 2 2 2 2 2 2 2 2 2 2 2 2 2 2 2
left_child=1 -1 4 -4 7 11 -7 -3 9 -2 -5 -6 13 14 -10 -16 -15
right_child=8 2 3 10 5 6 -8 -9 12 -11 -12 -13 -14 16 15 -17 -18
leaf_value=0.1060561033111047 -0.071619193212537652 -0.10308478820875824 0.039231306322384633 -0.13985801222282529 0.082374603287222528 0.04696509036489363 -0.030250373235169221 0.027892073263570006 -0.1041221965850055 0.030469258850216088 -0.053161882172178987 0.126800669595374 -0.10509166210321717 -0.10412260781134948 -0.1043391408123171 -0.10412239231256447 -0.10412307119036952
leaf_weight=8.237837500870226 2.4110636338591576 2.760822854936122 3.680840402841568 2.1830500923097134 2.1594543270766735 6.5605566278100031 6.6578797996044123 1.8723730929195879 1.0266100466251358 1.9421343579888342 3.5486202202737314 2.2716505378484824 0.87594476714730252 0.76052200421690974 1.3883179239928725 0.7604856714606284 2.6621071994304657
leaf_count=153 30 31 17 20 22 32 38 18 27 15 38 20 19 20 35 20 70
internal_value=-0.000550329 0.0216457 -0.000293226 -0.0371383 0.0152706 0.0324453 0.0080731 -0.0501543 -0.0754925 -0.0260735 -0.0861823 0.10515 -0.104276 -0.104168 -0.104217 -0.104262 -0.104123
internal_weight=51.7603 39.9331 31.6952 9.41251 22.2827 17.6495 13.2184 4.6332 11.8272 4.3532 5.73167 4.4311 7.47399 6.59804 3.17541 2.1488 3.42263
internal_count=625 389 236 75 161 112 70 49 236 45 58 42 191 172 82 55 90
is_linear=0
shrinkage=0.1


Tree=24
num_leaves=20
num_cat=0
split_feature=6 11 25 19 1 0 0 1 29 9 36 5 3 19 19 18 29 19 18
split_gain=7.48977 6.74787 2.5222 1.59604 1.75058 1.89155 3.3934 2.26707 2.20735 2.0739 0.98968 0.762196 0.928504 0.0249632 2.26562e-05 5.31466e-06 7.65989e-07 6.47792e-08 1.45252e-10
threshold=1.0000000180025095e-35 1.0000000180025095e-35 -1.1752521617903113 -1.1813375794295535 -1.1039760281476163 0.85934190490636442 0.38937244136767263 1.0000000180025095e-35 -0.39630273280334805 1.0000000180025095e-35 1.1602748259837241 -0.29266805305211602 1.108400836527732 -0.6363985682527068 1.0000000180025095e-35 1.1172442450201239 -0.46684649683516749 1.3366564722151861 0.14913227117152802
decision_type=2 2 2 2 2 2 2 2 2 2 2 2 2 2 2 2 2 2 2
left_child=1 -1 -2 -3 -5 6 7 8 10 -7 -6 -4 13 -13 -15 16 -16 18 -18
right_child=2 3 11 4 5 9 -8 -9 -10 -11 -12 12 -14 14 15 -17 17 -19 -20
leaf_value=0.10544670136268108 0.073334052227424409 0.061989561644578896 -0.00061067623801089538 0.056748277249536155 -0.043015462382222452 0.086458167613341144 -0.12800309815956687 0.049962768417232267 0.01361487462250759 -0.036465897097659114 -0.12375198519650199 -0.11551773603070688 5.6334743628687544e-05 -0.10437117376537175 -0.10383092118288872 -0.1040292930816704 -0.10371374177852564 -0.10374895317072362 -0.10371536635637008
leaf_weight=7.4947814829647532 1.0629264526069153 3.6316938996314994 0.89428868889808555 3.5680027268826988 3.6282481327652985 3.1322972662746897 3.1699072606861582 4.0349392369389525 4.7602384947240388 2.4429633021354675 2.6108275428414345 2.797637760639188 0.88326185196638185 0.80795189738273521 0.84993405640124953 0.81144336238503445 1.0357627980411095 0.73057134449481953 1.174341171979904
leaf_count=153 19 25 16 19 33 26 29 30 37 23 14 31 18 21 24 22 30 21 34
internal_value=-0.000537434 0.0203025 -0.0731102 -0.00029646 -0.00856794 -0.0183684 -0.0339767 -0.0141516 -0.0376711 0.0325954 -0.0768008 -0.0886993 -0.0973647 -0.107849 -0.103883 -0.103797 -0.103747 -0.103723 -0.103715
internal_weight=49.522 38.4739 11.0481 30.9791 27.3474 23.7794 18.2042 15.0343 10.9993 5.57526 6.23908 9.98519 9.0909 8.20764 5.41 4.60205 3.79061 2.94068 2.2101
internal_count=625 389 236 236 211 192 143 114 84 49 47 217 201 183 152 131 109 85 64
is_linear=0
shrinkage=0.1


Tree=25
num_leaves=25
num_cat=0
split_feature=6 11 25 36 36 14 22 19 3 3 23 19 29 1 19 19 18 4 29 20 0 0 0 20
split_gain=6.47743 6.17184 2.21846 1.45895 2.92339 1.5489 1.52417 1.73269 4.19934 1.49836 1.45713 0.852291 1.02742 0.346213 0.0167404 1.69345e-05 3.92264e-06 1.76333e-06 6.23579e-07 1.0392e-06 8.88178e-16 8.88178e-16 4.44089e-16 4.44089e-16
threshold=1.0000000180025095e-35 1.0000000180025095e-35 -1.1752521617903113 -0.80318663495443687 -0.092150307976358869 -1.0000000180025095e-35 0.045780482117715494 -0.37332456285698795 -0.23027287764025339 -0.67649744902958175 0.67634932815915427 -1.2377105805857789 2.9897979407239847 0.097690033855168473 -0.6363985682527068 1.0000000180025095e-35 1.1172442450201239 0.68426139067695713 -0.078855794660160655 0.5646298188436718 0.73173301791880485 -0.51842380046392744 1.2040335399757691 -1.0000000180025095e-35
decision_type=2 2 2 2 2 2 2 2 2 2 2 2 2 2 2 2 2 2 2 2 2 2 2 2
left_child=1 20 -2 5 13 9 7 -6 -9 -3 -8 -4 14 -5 -13 -16 17 18 19 -17 21 -1 -22 -23
right_child=2 3 11 4 6 -7 10 8 -10 -11 -12 12 -14 -15 15 16 -18 -19 -20 -21 22 23 -24 -25
leaf_value=0.10490160435348009 0.062229498440069808 0.054541212669257912 0.016055277378636382 0.11247359002817883 0.052371158649588828 -0.11792785132835495 -0.083349962645930573 0.05413179918153254 -0.11193563850509108 -0.060058093767062615 0.0058591832976394431 -0.11364639841222096 0.012679149462479587 0.053282090699974465 -0.1039704575824083 -0.10353924131129388 -0.10368980174582959 -0.10358177314642002 -0.10334878566476952 -0.103385041974172 0.10490160435348002 0.10490160435348009 0.10490160435348006 0.10490160435348013
leaf_weight=1.3808166570961473 1.1237793266773213 1.9949111789464948 0.74431190639734168 2.4077217988669899 6.4975399225950277 1.9098911769688118 3.8489126376807681 3.3335125520825422 2.8030963726341707 2.665131613612175 3.492280013859272 2.3885116577148411 0.79537785798311222 1.6760061122477052 0.88467925041914064 0.72220906987786104 0.81358290463685978 0.76453258842229832 1.0346435159444833 1.1069282777607439 1.1135618202388289 1.6480714939534664 1.0244768746197221 1.6480714939534655
leaf_count=31 19 12 8 27 33 23 24 16 24 37 21 29 18 19 25 22 24 23 33 35 25 37 23 37
internal_value=-0.000543932 0.018832 -0.0704488 -0.000318635 0.0110864 -0.0420837 -0.00467469 0.0163815 -0.0217249 -0.0109994 -0.0409123 -0.0865595 -0.0955341 0.0881808 -0.10669 -0.103571 -0.103491 -0.103447 -0.103411 -0.103446 0.104902 0.104902 0.104902 0.104902
internal_weight=47.8226 37.444 10.3786 30.629 24.0591 6.56993 19.9753 12.6341 6.13661 4.66004 7.34119 9.25478 8.51047 4.08373 7.71509 5.32658 4.4419 3.62831 2.86378 1.82914 6.815 4.67696 2.13804 3.29614
internal_count=625 389 236 236 164 72 118 73 40 49 45 217 209 46 191 162 137 113 90 57 153 105 48 74
is_linear=0
shrinkage=0.1


Tree=26
num_leaves=23
num_cat=0
split_feature=6 11 25 20 0 36 36 4 33 36 0 10 29 19 19 19 19 18 25 0 5 19
split_gain=5.61412 5.62908 2.5722 1.48201 1.63306 2.01924 3.18837 2.06578 1.3684 1.62721 1.21948 1.03599 0.819105 0.98606 0.460676 0.0122804 2.08355e-05 5.24542e-06 2.90755e-06 9.73238e-07 5.53865e-07 8.24841e-08
threshold=1.0000000180025095e-35 1.0000000180025095e-35 -1.3414245660683537 1.0328492096722057 -1.1760610161332397 1.1176311870776072 -0.80318663495443687 0.34630814408506877 1.0000000180025095e-35 0.6578215153942607 0.0060117419150045896 -0.9373397073365296 2.9897979407239847 -1.2377105805857789 0.096450446778224605 -0.6363985682527068 -0.035086555919634797 1.2248122421144139 -0.68395983609870803 0.32933014311208014 1.0000000180025095e-35 1.1487464683611011
decision_type=2 2 2 2 2 2 2 2 2 2 2 2 2 2 2 2 2 2 2 2 2 2
left_child=1 -1 -2 4 -3 6 11 -7 9 -8 -10 -6 13 -4 -13 -15 -17 18 -18 20 -20 -22
right_child=2 3 12 -5 5 7 8 -9 10 -11 -12 14 -14 15 -16 16 17 -19 19 -21 21 -23
leaf_value=0.10441346914710757 0.086378593441661669 0.075731770727121117 0.014278451852832483 -0.072092262659561576 0.016291211554074526 -0.086062685284013965 0.064529529868981597 0.014736306450267522 0.13815210384388513 -0.040568135883147748 0.040995954118819407 -0.10967616412952197 0.011289950934564575 -0.11224479695777603 -0.030179376232891509 -0.1037641825297741 -0.10333393836836907 -0.10345213154944839 -0.10314123180235331 -0.10320465547537944 -0.1030193340853606 -0.10306662378878007
leaf_weight=6.1938228718936434 0.97342335060238738 3.0344540700316456 0.75276657566428085 2.6253756731748572 1.6091953441500662 4.6703737117350084 3.1427049189806002 3.6006246581673622 2.3871260732412338 2.7731287106871605 2.8158874697983265 2.0944522321224244 0.80346885696053494 2.186818052083253 1.1180819943547247 0.73251559771597285 0.64560776017606158 0.63715112023055542 0.73488066717982592 0.68842448480427254 1.0241797864437101 0.57642905041575421
leaf_count=153 14 15 8 22 12 29 27 22 18 19 22 34 18 29 16 22 21 20 25 23 36 20
internal_value=-0.000552283 0.0176528 -0.0678538 -0.000336956 0.00657725 -0.00208994 0.0187123 -0.0421817 0.0481635 0.0152635 0.0855709 -0.049202 -0.0849489 -0.0946403 -0.0820083 -0.105987 -0.103271 -0.103187 -0.103141 -0.1031 -0.103069 -0.103036
internal_weight=45.8209 36.0652 9.75567 29.8714 27.246 24.2116 15.9406 8.271 11.1188 5.91583 5.20301 4.82173 8.78224 7.97877 3.21253 7.22601 5.03919 4.30667 3.66952 3.02391 2.33549 1.60061
internal_count=625 389 236 236 214 199 148 51 86 46 40 62 222 204 50 196 167 145 125 104 81 56
is_linear=0
shrinkage=0.1


Tree=27
num_leaves=24
num_cat=0
split_feature=6 11 25 9 36 18 36 1 1 4 29 29 5 3 19 19 18 0 37 5 0 0 0
split_gain=4.86602 5.13241 2.36454 1.3328 1.78803 2.88721 2.02555 1.62468 2.24933 2.90349 2.42447 0.978775 1.00899 0.0190211 0.0117388 1.8814e-05 5.28087e-06 2.2462e-06 7.20017e-07 1.87479e-11 8.88178e-16 8.88178e-16 8.88178e-16
threshold=1.0000000180025095e-35 1.0000000180025095e-35 -1.3919987760660189 -1.1943662352988231 -0.80318663495443687 1.1172442450201239 -0.092150307976358869 -1.0304479817655663 -0.64125447989824214 -0.41625302771201228 -0.4915368142463043 3.113249527779669 -0.29266805305211602 -0.28276988603899783 -0.6363985682527068 -0.035086555919634797 1.2248122421144139 0.32933014311208014 1.0000000180025095e-35 0.88113429876118354 1.2496636206616942 -0.79521068739255374 -0.014097535896190665
decision_type=2 2 2 2 2 2 2 2 2 2 2 2 2 2 2 2 2 2 2 2 2 2 2
left_child=1 20 -2 -3 5 13 -6 -8 -9 -10 -11 12 -4 -5 -14 -16 17 18 -17 -20 21 -1 -23
right_child=2 3 11 4 6 -7 7 8 9 10 -12 -13 14 -15 15 16 -18 -19 19 -21 -22 22 -24
leaf_value=0.10397588796853824 0.080501323575746853 0.052219759928096202 0.013389298904147643 -0.12152854741978643 0.079342803827703284 0.049408664511542924 0.06819573933368589 -0.095389719494286873 0.077758381857747749 0.012909287836677717 -0.098590639041597677 0.03164358759476657 -0.11174132896724905 -0.10663735237102115 -0.10347273455149127 -0.10283672443005532 -0.10315156364177094 -0.10295959154523684 -0.10272338974528861 -0.10272415652280649 0.10397588796853824 0.10397588796853829 0.10397588796853836
leaf_weight=0.7723039537668227 0.99180353805422683 4.1415865384042254 0.79119016043841739 1.5605161264538765 3.0564590953290525 1.5901864469051359 2.3427830934524598 3.2139123454690042 3.3374845311045709 4.716448694467549 3.3249292895197629 0.68272160366177548 2.3315646164119226 1.9048070926219252 0.61149709485471104 0.98582621663809145 0.58264958299696434 0.8844656292349099 0.77427011542022228 0.54213349893689156 0.7723039537668227 1.36072601377964 2.7214520275592795
leaf_count=21 13 35 16 15 35 12 11 18 18 25 29 15 32 38 20 37 20 32 30 21 21 37 74
internal_value=-0.000548213 0.0165275 -0.0653224 -0.000329954 -0.009019 -0.0621504 0.00441667 -0.00910569 -0.021516 -0.000650637 -0.0331934 -0.0829895 -0.0934195 -0.113343 -0.106009 -0.102958 -0.102875 -0.102824 -0.102772 -0.102724 0.103976 0.103976 0.103976
internal_weight=43.994 34.8159 9.17812 29.1891 25.0475 5.05551 19.992 16.9356 14.5928 11.3789 8.04138 8.18632 7.5036 3.46532 6.71241 4.38084 3.76935 3.1867 2.30223 1.3164 5.62679 4.85448 4.08218
internal_count=625 389 236 236 201 65 136 101 90 72 54 223 208 53 192 160 140 120 88 51 153 132 111
is_linear=0
shrinkage=0.1


Tree=28
num_leaves=24
num_cat=0
split_feature=6 11 8 10 9 4 0 0 33 29 29 29 8 3 19 25 18 20 18 5 3 25 0
split_gain=4.21009 4.6802 3.3201 1.24356 2.70005 2.57156 1.64922 2.02815 2.54959 3.25548 1.65501 0.923355 1.06692 0.878627 0.00753269 0.000159568 8.14478e-06 6.61227e-06 6.2251e-07 5.42334e-07 5.48035e-07 1.34891e-07 8.88178e-16
threshold=1.0000000180025095e-35 1.0000000180025095e-35 -0.56994146410699942 -0.9373397073365296 -1.1943662352988231 1.0164376586946249 0.85934190490636442 0.13570513315449037 1.0000000180025095e-35 -0.44921055582721264 -0.25521520473970921 3.113249527779669 1.0000000180025095e-35 0.48893613742254666 -0.6363985682527068 -1.0813286289375048 1.3323802392087039 0.23282080172108852 0.36426826536010443 1.0000000180025095e-35 0.032212164353469172 0.21192616957421587 1.0585480068932818
decision_type=2 2 2 2 2 2 2 2 2 2 2 2 2 2 2 2 2 2 2 2 2 2 2
left_child=1 22 -2 4 -3 6 7 8 9 -5 -11 12 14 -9 -4 -16 17 -17 19 -19 -21 -20 -1
right_child=2 3 11 5 -6 -7 -8 13 -10 10 -12 -13 -14 -15 15 16 -18 18 21 20 -22 -23 -24
leaf_value=0.10358326260270351 0.13758932437551627 0.11847148760928294 -0.1103671902296765 -0.088400535297316243 -0.018938506902530152 -0.1125093425401387 0.06238495971202386 -0.12607057966273513 0.089575553768518959 0.087922951092579374 -0.018435890928280848 0.02775193727538924 0.025293058443445773 -0.03270239133269983 -0.10420330582911526 -0.10291687794453547 -0.10304446859663717 -0.10265987236904271 -0.10245692530856172 -0.10245775460727458 -0.1026087655864702 -0.10252531108696616 0.10358326260270341
leaf_weight=4.0409577004611483 0.75489891692996014 2.5308619178831577 1.9450326655060042 3.895558308810001 3.2875201925635329 2.2478322032839051 3.52590687572956 1.8127793632447708 2.8811610601842395 2.6560730449855381 3.257156968116762 0.69965169206261624 0.69385219179093827 2.2699062060564756 0.81372039578854982 0.55384159833192859 0.47665504552423943 0.54831670597195648 0.72555531933903672 0.468250947073102 0.49370572157204151 0.47876865789294243 1.0686830282211301
leaf_count=121 8 26 31 29 21 22 30 19 25 19 22 15 8 23 23 21 17 22 31 20 20 20 32
internal_value=-0.000587751 0.0154845 -0.062769 -0.000385707 0.0408317 -0.0110224 0.000216144 -0.0128528 0.00687106 -0.017422 0.0293378 -0.081921 -0.0925817 -0.0741594 -0.105157 -0.102934 -0.102658 -0.102602 -0.102538 -0.102581 -0.102535 -0.102484 0.103583
internal_weight=42.1266 33.4744 8.65225 28.3648 5.81838 22.5464 20.2985 16.7726 12.6899 9.80879 5.91323 7.89735 7.1977 4.08269 6.50385 4.55881 3.74509 3.26844 2.7146 1.51027 0.961957 1.20432 5.10964
internal_count=625 389 236 236 47 189 167 137 95 70 41 228 213 42 205 174 151 134 113 62 40 51 153
is_linear=0
shrinkage=0.1


Tree=29
num_leaves=23
num_cat=0
split_feature=6 11 8 20 3 19 36 36 29 29 5 33 25 19 25 32 29 1 23 23 0 0
split_gain=3.64998 4.2667 2.7576 1.18091 1.44274 2.15716 2.10225 1.64303 1.55713 1.05367 1.04065 0.906596 0.461578 0.00827799 0.000116584 6.56335e-06 2.20201e-06 2.3548e-07 2.20385e-07 3.81988e-07 8.88178e-16 2.22045e-16
threshold=1.0000000180025095e-35 1.0000000180025095e-35 -0.56994146410699942 1.0328492096722057 -1.0466013582407303 -0.35453356247157936 1.56446235996344 -0.55103294403131142 -0.53739026086698682 3.4130605249149011 -0.29266805305211602 1.0000000180025095e-35 0.15412707243402721 -0.6363985682527068 -1.0813286289375048 -1.9696026121485823 0.45022243557848513 -0.93541561183366451 0.052206112525449259 -0.36388936456368692 0.62129132443363988 1.2040335399757691
decision_type=2 2 2 2 2 2 2 2 2 2 2 2 2 2 2 2 2 2 2 2 2 2
left_child=1 20 -2 4 -3 6 7 -6 -9 10 -4 12 -7 -12 -15 -16 17 -17 19 -19 -1 -22
right_child=2 3 9 -5 5 11 -8 8 -10 -11 13 -13 -14 14 15 16 -18 18 -20 -21 21 -23
leaf_value=0.10323067373323234 0.11369101074931942 0.059288373598602277 0.019673229947370065 -0.066183731471389257 -0.028641967522465644 -0.10298166790734786 -0.047715969531086651 0.10072494834025499 0.012456351296284739 0.045645360684912789 -0.11059305167552286 0.0046821134277716002 -0.038893265994704912 -0.10378990670412354 -0.10272779531610184 -0.10221722466013206 -0.10247732494114709 -0.10226128037263577 -0.10225162017256606 -0.10238986207715797 0.10323067373323225 0.10323067373323219
leaf_weight=2.9709888882935038 0.81839637272059906 4.2435806058347252 0.75067944824695576 2.4826053418219081 2.6731728129088905 2.6946783289313325 3.7346830442547807 4.5279212556779402 3.5776565670967067 0.61314310505986203 1.9526278655976046 1.9754225462675092 1.9277388770133255 0.73906777240335886 0.51354904286563341 0.44563617184758175 0.80830436758697022 0.43129064887762036 0.58053643815219402 0.49761379323899846 0.97011882066726662 0.69727290235459805
leaf_count=98 8 22 16 22 34 36 21 33 24 12 31 23 21 23 21 21 35 20 27 22 32 23
internal_value=-0.000582382 0.0144338 -0.0604123 -0.000361823 0.00608309 -0.00461171 0.0169409 0.0393435 0.0617648 -0.0798445 -0.0912955 -0.0520215 -0.0762542 -0.105252 -0.102655 -0.1024 -0.102338 -0.102281 -0.1023 -0.10233 0.103231 0.103231
internal_weight=40.6267 32.4758 8.15085 27.8375 25.3549 21.1113 14.5134 10.7788 8.10558 7.33245 6.71931 6.59784 4.62242 5.96863 4.016 3.27693 2.76338 1.95508 1.50944 0.928904 4.63838 1.66739
internal_count=625 389 236 236 214 192 112 91 57 228 216 80 57 200 169 146 125 90 69 42 153 55
is_linear=0
shrinkage=0.1


Tree=30
num_leaves=22
num_cat=0
split_feature=6 11 8 22 16 25 25 1 4 36 3 29 8 20 19 25 18 20 25 4 37
split_gain=3.15657 3.89094 2.32365 1.03211 2.18002 3.46114 1.66435 1.90111 1.15333 2.36331 1.00634 0.962234 1.0821 0.615747 0.00430055 7.82626e-05 4.79456e-06 4.1211e-06 5.04846e-06 1.27398e-06 1.20949e-07
threshold=1.0000000180025095e-35 1.0000000180025095e-35 -0.56994146410699942 -0.49426565004272088 -1.0000000180025095e-35 0.41422300956487612 0.57317052670039492 -0.19304822143400849 -0.15340050258498814 0.86547749615448166 -0.33526689443774244 3.4130605249149011 1.0000000180025095e-35 -0.44185753309483106 -0.6363985682527068 -1.0813286289375048 1.3323802392087039 0.45402681313614396 0.31307458956954598 0.63515707279608435 1.0000000180025095e-35
decision_type=2 2 2 2 2 2 2 2 2 2 2 2 2 2 2 2 2 2 2 2 2
left_child=1 -1 -2 10 6 8 7 -5 -6 -10 -3 12 14 -12 -4 -16 17 18 -17 20 -19
right_child=2 3 11 4 5 -7 -8 -9 9 -11 13 -13 -14 -15 15 16 -18 19 -20 -21 -22
leaf_value=0.10291380474161589 0.095707397833230581 0.06893570905112871 -0.10853720339609221 -0.07738757438727642 0.034865273322563124 -0.13966221654998665 0.082835196887676446 0.034971324909213702 0.027354952908693671 -0.12880223327636459 0.035589889435598342 0.039642206372964846 0.03038326552617019 -0.039734373438961967 -0.10341836072892736 -0.10215372883188206 -0.10255469254271297 -0.10206533100214357 -0.10257475346608916 -0.10223647643960339 -0.10200221449659026
leaf_weight=4.2092440836131599 0.87179216742515553 3.6178182810544968 1.6470239218324416 2.407957324758172 3.3012320082634732 2.7997187431901693 3.0245906375348568 4.01977557316423 2.0778863783925678 1.8163355253636835 2.1475098226219416 0.63418772444128979 0.66931486874818791 2.1940137445926693 0.6710162516683339 0.69239959493279524 0.39940829575061787 0.55279705859720685 0.48380369320511818 0.39849974215030659 0.67353419587016106
leaf_count=153 8 23 31 25 28 22 22 32 29 15 17 12 8 23 23 34 17 28 21 19 35
internal_value=-0.000581048 0.0133978 -0.0580246 -0.000350349 -0.0127652 -0.0453243 0.0216638 -0.00712057 -0.00861783 -0.0454796 0.0299835 -0.0776702 -0.0896936 -0.00247566 -0.104257 -0.102436 -0.102231 -0.102184 -0.102327 -0.102081 -0.102031
internal_weight=39.3099 31.6161 7.69378 27.4068 19.4475 9.99517 9.45232 6.42773 7.19545 3.89422 7.95934 6.82199 6.1878 4.34152 5.51848 3.87146 3.20044 2.80103 1.1762 1.62483 1.22633
internal_count=625 389 236 236 173 94 79 57 72 44 63 228 216 40 208 177 154 137 55 82 63
is_linear=0
shrinkage=0.1


Tree=31
num_leaves=24
num_cat=0
split_feature=36 25 6 11 18 36 9 18 9 24 23 36 1 3 9 0 19 6 29 19 37 20 0
split_gain=2.91141 2.98382 2.84073 2.90516 2.48989 2.04774 1.98804 1.39806 1.79853 1.13089 1.80095 1.05606 0.407056 0.0560014 0.00506922 0.00457166 0.00279393 0.000434725 0.000109727 5.58165e-06 1.59858e-06 1.30689e-06 4.44089e-16
threshold=-0.80318663495443687 -1.5220467446314434 -1.0000000180025095e-35 1.0000000180025095e-35 1.3323802392087039 -0.092150307976358869 -1.1943662352988231 -0.603843708488495 1.0000000180025095e-35 1.0000000180025095e-35 0.052206112525449259 1.1176311870776072 0.15569284691396418 -0.91010913640399493 1.0000000180025095e-35 0.73173301791880485 -0.48607056516943886 1.0000000180025095e-35 2.8928002651802331 0.39710645294476082 1.0000000180025095e-35 0.66048575712352897 -0.56874523387014275
decision_type=2 2 2 2 2 2 2 2 2 2 2 2 2 2 2 2 2 2 2 2 2 2 2
left_child=4 -2 3 22 6 12 -1 11 -9 16 -11 -7 -5 -8 -15 17 -4 -16 19 -18 -21 -19 -3
right_child=1 2 9 5 -6 7 13 8 -10 10 -12 -13 -14 14 15 -17 18 21 -20 20 -22 -23 -24
leaf_value=0.030787053606473748 0.13922253314646252 0.10262884421020733 -0.10905785835191575 0.10967742958197318 0.061330218924966443 -0.0057072922526302189 -0.12887594825431811 0.06102296345351902 -0.023247107900864913 -0.10732582415169963 0.094719652085939646 -0.082913746952074499 0.036667299032044798 -0.10875187915630813 -0.10510321521407709 -0.092406514429743125 -0.10243012246194322 -0.1020644801733015 -0.1039382522070974 -0.10215189287564899 -0.10187982334194833 -0.10180628312090874 0.10262884421020729
leaf_weight=1.2400986105203626 1.773519149050119 0.67389138601720366 1.0729287825524807 1.8271526265889506 1.4837310705333946 3.6968533359468099 1.2495880872011178 4.6443444788455785 5.5700534079223871 0.85656238161027409 0.9097033254802227 3.4020169302821159 1.3119544424116609 1.6041068676859138 0.96353559382259868 0.45289073325693596 0.45000312104821094 0.38368936814367771 0.45797079987823974 0.37979433499276638 0.50063342228531837 0.40083275176584721 2.8952370658516946
leaf_count=13 23 27 19 26 19 22 14 28 39 27 14 24 17 32 24 17 21 20 13 19 28 23 116
internal_value=-0.000607625 0.0133516 0.00555963 0.0193805 -0.0552042 0.00485295 -0.0826724 -0.0086205 0.0150693 -0.0661837 -0.00326365 -0.0427072 0.0791637 -0.110508 -0.104476 -0.10136 -0.105024 -0.10368 -0.102603 -0.102144 -0.101997 -0.101933 0.102629
internal_weight=38.2011 30.4226 28.6491 24.0215 7.77847 20.4524 6.29474 17.3133 10.2144 4.6276 1.76627 7.09887 3.13911 5.05464 3.80506 2.20095 2.86133 1.74806 1.7884 1.33043 0.880428 0.784522 3.56913
internal_count=625 463 440 299 162 156 143 113 67 141 41 46 43 130 116 84 100 67 81 68 47 43 143
is_linear=0
shrinkage=0.1


Tree=32
num_leaves=25
num_cat=0
split_feature=36 25 6 11 18 9 36 22 23 23 3 1 23 3 19 0 9 6 29 19 9 3 0 0
split_gain=2.50006 2.46611 2.46095 2.67236 2.16881 1.83064 1.78018 1.28677 1.66824 1.56905 1.12563 4.03238 0.411831 0.0419161 0.00606342 0.00565384 0.00206509 0.000475093 4.7715e-05 2.43388e-05 1.8634e-05 1.79494e-06 8.88178e-16 2.22045e-16
threshold=-0.80318663495443687 -1.5220467446314434 -1.0000000180025095e-35 1.0000000180025095e-35 1.3323802392087039 -1.1943662352988231 -0.092150307976358869 -1.0000000180025095e-35 0.67634932815915427 -0.29454011838216443 0.13720618115095823 -0.47576233467412304 0.39895234343306302 -0.91010913640399493 -0.65518956863811539 1.0418144760332779 -0.71385197906337761 1.0000000180025095e-35 2.7252588256046617 0.39710645294476082 0.2471765334075133 -0.84973757674543837 0.44499040614795549 1.1563218786063076
decision_type=2 2 2 2 2 2 2 2 2 2 2 2 2 2 2 2 2 2 2 2 2 2 2 2
left_child=4 -2 3 22 5 -1 12 9 -9 -8 14 -12 -5 -7 -4 16 -15 -18 19 -16 -19 -21 -3 -24
right_child=1 2 10 6 -6 13 7 8 -10 -11 11 -13 -14 15 18 -17 17 20 -20 21 -22 -23 23 -25
leaf_value=0.027756837425437154 0.12797375730733204 0.10237243115053052 -0.11253711923349392 0.10893540824021219 0.05348337378304413 -0.12561485597682873 -0.020892016966681373 -0.095745648157548199 0.0069506327869153159 0.055712473397830614 0.21876212867944031 -0.10546964106643159 0.033397202984284884 -0.10999988939233679 -0.10274919408673744 -0.094028350112766779 -0.10502017476712032 -0.10262368007886152 -0.10345137381947163 -0.10200043656155111 -0.10167726688680508 -0.10170245671646193 0.10237243115053081 0.10237243115053073
leaf_weight=1.2380481474101541 1.7384023834019924 1.9694597013294761 0.93634475767612468 1.6726140696555476 1.5286992285400627 1.1585078602656715 6.0294038951397049 3.1197133623063396 3.2086845487356186 4.8042890913784504 0.5620074439793824 1.2081451546400783 1.2695880495011804 0.71924107335507859 0.45048622414469608 0.51968092285096634 1.3465538043528802 0.3351268172264098 0.36838553100824367 0.36233046837151028 0.54859119839966297 0.45727180875837825 0.74703643843531586 0.52066176012158394
leaf_count=13 23 87 15 25 19 14 38 23 21 31 8 37 18 13 21 17 35 17 12 20 34 28 33 23
internal_value=-0.000622256 0.0124405 0.00518623 0.0180494 -0.0526029 -0.0802505 0.00447185 -0.00784894 -0.0436756 0.0130789 -0.0639155 -0.00252899 0.07634 -0.109146 -0.106118 -0.103646 -0.10534 -0.103838 -0.102449 -0.102159 -0.102036 -0.101834 0.102372 0.102372
internal_weight=36.8193 29.4248 27.6864 23.3415 7.39445 5.86575 20.1043 17.1621 6.3284 10.8337 4.34497 1.77015 2.9422 4.6277 2.57482 3.46919 2.94951 2.23027 1.63847 1.27009 0.883718 0.819602 3.23716 1.2677
internal_count=625 463 440 299 162 143 156 113 44 69 141 45 43 130 96 116 99 86 81 69 51 48 143 56
is_linear=0
shrinkage=0.1


Tree=33
num_leaves=27
num_cat=0
split_feature=8 25 6 11 25 22 16 1 4 25 24 3 19 1 11 23 19 19 29 18 36 20 29 19 0 0
split_gain=2.26165 1.83068 2.56018 2.3146 1.55907 2.60012 2.36726 1.99439 2.73178 1.42097 0.861868 1.58601 0.420296 0.308901 0.00448502 0.00280527 0.00167617 0.001641 0.000132726 1.29086e-05 2.53668e-06 7.12593e-07 3.14647e-07 1.41012e-07 4.44089e-16 2.22045e-16
threshold=2.0643401592306136 -1.5220467446314434 1.0000000180025095e-35 -1.0000000180025095e-35 -0.88625667608936831 -0.60998982121995626 -1.0000000180025095e-35 -0.37986329584674211 -0.96217750297583182 0.57317052670039492 1.0000000180025095e-35 0.13720618115095823 -0.27936956092994542 0.051524033877001649 1.0000000180025095e-35 0.052206112525449259 -0.6363985682527068 0.39710645294476082 3.113249527779669 1.3323802392087039 0.32779683168605228 0.57937688627134187 -0.11412767667607036 1.0172094656632418 -0.34855375808209427 1.0585480068932818
decision_type=2 2 2 2 2 2 2 2 2 2 2 2 2 2 2 2 2 2 2 2 2 2 2 2 2 2
left_child=1 -1 3 24 -5 -6 9 8 -8 13 16 17 -9 -7 15 -2 -4 -12 19 20 21 22 -18 -23 -3 -26
right_child=14 2 10 4 5 6 7 12 -10 -11 11 -13 -14 -15 -16 -17 18 -19 -20 -21 -22 23 -24 -25 25 -27
leaf_value=0.09022099262374754 0.090954765219671732 0.10214157549817869 -0.10674148697111585 -0.078516408018380543 0.070599828793505209 -0.030934456434333374 -0.094687455487183173 -0.14098087320530781 0.056082110779355945 0.078292041381986199 -0.1100517252509714 0.066412579796515436 -0.07353961584616342 0.016681434608843086 0.10654001480794417 0.10214157549817873 -0.10172860344284539 -0.10193384030816813 -0.10379268094276362 -0.10232685119092527 -0.10190270814534817 -0.10147327940810197 -0.10159143317855966 -0.1015694279974933 0.10214157549817858 0.10214157549817876
leaf_weight=1.8370668590068806 0.41131555289029997 0.5747606307268146 1.1655802708119156 2.7722457535564962 4.3060481045395234 2.8905197475105613 2.1719198003411293 1.9287941865623086 2.6904078815132468 2.8808580953627825 0.69667037855833791 1.0235269172117112 1.7739516496657988 2.5771674159914255 1.1096566580235958 0.49265196919441223 0.37075960822403442 0.38753061834722757 0.39196140319108952 0.35322781559079874 0.34064434748142947 0.32908455189317465 0.30462151486426514 0.28432390000671148 1.0058311037719274 0.49265196919441212
leaf_count=25 20 28 28 27 33 25 12 15 29 22 17 24 27 17 22 24 23 23 12 17 20 23 20 19 49 24
internal_value=-0.000655577 -0.00683362 -0.0124558 0.000770289 -0.00798964 0.00122434 -0.016438 -0.0533736 -0.0112641 0.0214555 -0.0734939 -0.0228669 -0.10867 -0.00849094 0.10228 0.0970514 -0.103636 -0.10715 -0.102111 -0.101779 -0.10166 -0.101596 -0.101667 -0.101518 0.102142 0.102142
internal_weight=35.5638 33.5502 31.7131 26.0652 23.9919 21.2197 16.9136 8.56507 4.86233 8.34855 5.64793 2.10773 3.70275 5.46769 2.01362 0.903968 3.5402 1.0842 2.37462 1.98266 1.62943 1.28879 0.675381 0.613408 2.07324 1.49848
internal_count=625 559 534 308 207 180 147 83 41 64 226 64 42 42 66 44 162 40 134 122 105 85 43 42 101 73
is_linear=0
shrinkage=0.1


Tree=34
num_leaves=28
num_cat=0
split_feature=36 9 36 29 18 19 9 0 0 18 22 19 20 5 25 24 19 3 25 19 3 36 0 9 16 6 0
split_gain=2.08583 1.9712 2.50933 2.17101 1.85875 1.66846 1.63926 1.60045 3.59988 2.01267 1.30757 2.74778 1.01486 1.24786 0.826517 0.46498 0.334909 0.238887 0.0876003 0.042103 0.0300254 0.0116183 0.00615958 0.00170481 0.000548411 0.000385964 8.42608e-06
threshold=-0.80318663495443687 0.2471765334075133 0.075643140762926817 -0.39630273280334805 1.3323802392087039 1.2802834710589606 -1.1943662352988231 0.37082142550074415 0.88281620991806065 -0.603843708488495 -0.39782884072835767 0.2749649504396055 0.32867674000094566 -1.0000000180025095e-35 -0.68395983609870803 -0.24135304091636575 -0.12904155784667729 -0.59775193643146485 -0.8284575789491796 -0.41090656362780481 -0.91010913640399493 -0.2951711105946106 0.92561237832509824 -0.71385197906337761 1.0000000180025095e-35 1.0000000180025095e-35 0.16423038979668306
decision_type=2 2 2 2 2 2 2 2 2 2 2 2 2 2 2 2 2 2 2 2 2 2 2 2 2 2 2
left_child=4 2 12 7 6 10 -1 9 -9 -4 15 -12 13 16 -5 -3 19 -13 -17 21 -8 24 23 -22 -2 -25 -27
right_child=1 5 3 14 -6 -7 20 8 -10 -11 11 17 -14 -15 -16 18 -18 -19 -20 -21 22 -23 -24 25 -26 26 -28
leaf_value=0.024861020717948577 0.10286559478500544 -0.16179694266345326 0.0037906782800244281 0.0097009139750966738 0.046712862504416072 0.050502835224373849 -0.12261937924668193 -0.10440770788091014 0.059606573541903268 0.12259235436621428 0.083578918019618906 -0.11991273093799935 0.17765771110553122 -0.050917754258215125 -0.10419906158054844 -0.10502638037301769 0.033666959501931749 -0.054327507276207034 -0.053382539034413583 0.13023661478321311 -0.10960732482093111 0.088645567075447157 -0.09308210063107418 -0.10461609201526419 0.10665672985304438 -0.10141997572225676 -0.10212687385826191
leaf_weight=1.2001501638442276 0.64543956890702292 1.061576425097883 2.8085336461663246 0.92248669452965293 1.5410718414932487 1.9773764070123432 1.0405762512236827 2.3669097162783146 3.0790681634098291 2.8969331607222575 1.5608911961317047 1.1929024690762164 1.0082127470523117 0.75117887649685799 2.0593191478401378 0.54166480153799057 0.79658775404095639 1.0391589319333432 0.83441212866455294 0.61741104908287514 0.61012561805546273 0.58862798660993587 0.52273081522434939 1.2395275458693507 0.93330700695514679 0.43602684326469887 0.2749506114050746
leaf_count=13 28 14 19 10 19 34 14 24 34 23 33 20 15 24 38 8 12 35 35 11 11 25 21 35 21 32 17
internal_value=-0.000661928 0.0115747 0.028899 0.00683261 -0.0500028 -0.0295286 -0.0779974 0.0270994 -0.0116767 0.0641119 -0.0549278 -0.0182026 0.0872933 0.0662649 -0.0689616 -0.112072 0.0908435 -0.0893789 -0.0737111 0.107199 -0.107931 0.100636 -0.102974 -0.104994 0.105107 -0.103551 -0.101693
internal_weight=34.5472 27.682 19.474 14.1333 6.86516 8.20798 5.32409 11.1514 5.44598 5.70547 6.23061 3.79295 5.34076 4.33255 2.98181 2.43765 3.58137 2.23206 1.37608 2.78479 4.12394 2.16737 3.08336 2.56063 1.57875 1.95051 0.710977
internal_count=625 463 284 148 162 179 143 100 58 42 145 88 136 121 48 57 97 55 43 85 130 74 116 95 49 84 49
is_linear=0
shrinkage=0.1


Tree=35
num_leaves=26
num_cat=0
split_feature=1 4 3 19 36 36 22 22 36 33 36 0 4 29 0 19 19 19 24 19 36 29 36 6 29
split_gain=2.03528 2.32477 2.47825 3.55169 1.8073 1.63459 1.71622 1.16367 1.82285 1.55577 1.22732 0.982361 0.86919 1.6683 0.898323 0.838701 0.817877 0.668442 0.587493 0.129145 0.108398 0.0531639 0.000920882 0.000156995 7.9032e-05
threshold=-1.3824082741011838 -1.1874796673704238 -1.0466013582407303 -0.48607056516943886 1.56446235996344 -0.80318663495443687 0.66297606172964207 -0.39782884072835767 -0.77352149484583388 1.0000000180025095e-35 -0.092150307976358869 -1.8082583143195599 0.24809950832332348 -0.53739026086698682 -0.15583407979817951 -0.33574256208617076 1.0000000180025095e-35 -0.072668556690451816 -0.1184244690210611 0.58501645679884595 -0.083806987320814277 -0.13176361768402522 -1.4669441448844287 1.0000000180025095e-35 0.37967867154666568
decision_type=2 2 2 2 2 2 2 2 2 2 2 2 2 2 2 2 2 2 2 2 2 2 2 2 2
left_child=-1 11 -3 4 5 -4 12 15 22 10 -10 -2 14 -14 -7 -5 -11 -17 -12 -19 -20 -22 -9 -24 -25
right_child=1 2 3 7 -6 6 -8 8 9 16 18 -13 13 -15 -16 17 -18 19 20 -21 21 -23 23 24 -26
leaf_value=0.12991598951126349 -0.011508767186788295 0.10022713172137887 -0.034960297972932264 -0.17688725528810131 -0.032773609733184834 0.061733333595243356 -0.030673136058910644 -0.10813777878263267 0.065418026049095773 0.15915109219447809 -0.011410069107545037 -0.12321906990460103 0.12093290487134215 -0.023731028747168027 0.15774952354279009 0.019125226533054908 0.023869489094096003 -0.1117183077110112 -0.1276854682037504 -0.061624072420694467 -0.057479692388608616 -0.097458497996445764 -0.10402942471812045 -0.10127961928022088 -0.10341630568478416
leaf_weight=1.1522130370140065 1.226086816750467 2.4448297265917054 1.8656108230352391 0.86738760676234994 3.5188859477639189 1.6357080079615114 1.4607289191335437 0.47579780500382218 1.0694542052224272 0.76769059803336848 1.5765855442732568 2.1991383181884876 1.605814715847371 1.5830478481948396 2.4102105181664246 0.71485176589340049 1.069486256688833 1.3321025865152485 0.62755640596151296 0.83862795121967781 0.67201772518455904 0.65862494241446468 0.90264781564474084 0.46959937736392021 0.27418248541653156
leaf_count=15 27 25 34 8 28 25 27 8 32 13 23 32 30 37 27 17 30 30 4 34 22 19 28 38 12
internal_value=-0.000678939 -0.00534236 0.00390779 -0.00501322 0.0292941 0.0499746 0.0681973 -0.0442324 -0.0238842 0.00259783 -0.0284462 -0.0832315 0.0881596 0.0491174 0.118932 -0.0906637 0.0803988 -0.0647454 -0.056845 -0.0923652 -0.0934255 -0.0772679 -0.104263 -0.103143 -0.102067
internal_weight=33.4189 32.2667 28.8414 26.3966 14.08 10.5611 8.69551 12.3166 8.56364 6.44142 4.60424 3.42523 7.23478 3.18886 4.04592 3.75297 1.83718 2.88558 3.53478 2.17073 1.9582 1.33064 2.12223 1.64643 0.743782
internal_count=625 610 551 526 208 180 146 318 229 143 100 59 119 67 52 89 43 81 68 64 45 41 86 78 50
is_linear=0
shrinkage=0.1


Tree=36
num_leaves=25
num_cat=0
split_feature=6 11 19 19 22 22 23 36 36 0 25 3 4 25 29 18 36 22 19 18 36 36 4 20
split_gain=1.77935 2.52764 1.67082 1.07628 0.890581 2.05235 1.41361 1.33624 0.931747 0.824576 0.797181 0.773469 0.455288 0.000224809 0.000116793 1.09574e-05 5.79029e-06 4.22749e-06 3.96948e-06 3.36398e-06 1.38423e-06 4.62652e-07 2.08772e-07 1.49871e-07
threshold=1.0000000180025095e-35 1.0000000180025095e-35 -0.52365256594025567 -0.84309957249220047 -0.49426565004272088 -0.3785414788654845 -0.29454011838216443 1.3846174480550342 -0.80318663495443687 0.41607534038898653 0.12522752386393288 -0.33526689443774244 0.30875778335263682 -1.13190283893517 3.4130605249149011 1.4399482363029901 -0.75312671102116935 -0.069943689059521724 -0.22299655977371982 0.14913227117152802 0.59478309266347928 0.060810570708625312 0.4589592262823648 0.57937688627134187
decision_type=2 2 2 2 2 2 2 2 2 2 2 2 2 2 2 2 2 2 2 2 2 2 2 2
left_child=1 18 3 -2 11 -6 -7 8 10 -10 -8 -3 -13 -4 15 16 23 -18 20 -19 22 -20 -1 -15
right_child=2 4 13 -5 5 6 7 -9 9 -11 -12 12 -14 14 -16 -17 17 19 21 -21 -22 -23 -24 -25
leaf_value=0.10166801816779425 -0.052255686893580358 0.065323033169544825 -0.10412618238500426 0.071787793088733967 -0.12057024067307683 -0.074207474403501755 -0.077450235257613423 -0.045208646380382092 0.074101672479367997 0.0049939642208290183 0.036564895094564329 -0.033609708685942527 0.035469528742696661 -0.10122613471069947 -0.10347906555436398 -0.10203491935024162 -0.10129149743543764 -0.10191208745929946 0.10195842031286272 -0.10147922385566235 0.1018936526947955 0.10209920333101977 0.10175578258451462 -0.10113694349203312
leaf_weight=0.54448846261948369 1.519167887978256 3.2714034002274275 0.47213775757700238 1.2964020399376748 1.5942560397088588 2.2628040332347217 1.2960091158747711 3.1455712784081689 4.510815329849704 2.7971837259829044 1.1640384774655101 2.0148797426372798 1.8122249729931352 0.37749838549643833 0.33940090611577023 0.31375427823513735 0.43379245605319805 0.34487426001578392 0.42374219279736536 0.37448807340115309 0.68064733035862435 0.51974008232355118 0.53969744965434074 0.37608953192830086
leaf_count=34 30 23 15 15 15 25 24 22 38 32 17 21 19 32 11 17 35 20 23 27 38 26 32 34
internal_value=-0.00067013 0.0103179 -0.0506112 0.00485894 -7.00426e-05 -0.0126369 -0.00129868 0.0114769 0.0297311 0.0476503 -0.0235009 0.0296199 -0.000899049 -0.102121 -0.101751 -0.101487 -0.101397 -0.101538 0.10187 -0.101687 0.101782 0.102036 0.101712 -0.101182
internal_weight=32.4251 26.5775 5.84761 2.81557 23.8692 16.7707 15.1764 12.9136 9.76805 7.308 2.46005 7.09851 3.8271 3.03204 2.5599 2.2205 1.90674 1.15315 2.70832 0.719362 1.76483 0.943482 1.08419 0.753588
internal_count=625 389 236 45 236 173 158 133 111 70 41 63 40 191 176 165 148 82 153 47 104 49 66 66
is_linear=0
shrinkage=0.1


Tree=37
num_leaves=28
num_cat=0
split_feature=8 5 11 18 0 9 0 0 20 20 3 0 6 36 23 6 12 29 37 11 4 19 29 0 19 19 7
split_gain=1.66281 1.2397 2.74099 1.6588 0.951306 1.53517 1.27889 2.70349 1.87296 2.37544 1.14209 0.901651 0.813268 0.770625 0.506977 0.626817 0.114013 0.0421025 0.00514164 0.00340271 0.00305295 0.00296627 6.64497e-05 2.7868e-05 1.2446e-05 9.09536e-07 7.07284e-07
threshold=2.0643401592306136 1.0000000180025095e-35 -1.0000000180025095e-35 1.6550842304915665 -1.1985013524627102 0.72769078964295886 0.88281620991806065 0.55004006502543035 -1.0612343650569858 0.20332666686574791 0.73567207689664615 -0.6190812851182369 -1.0000000180025095e-35 0.72827622315219276 0.67634932815915427 1.907504943374257 1.0000000180025095e-35 -0.11412767667607036 1.0000000180025095e-35 -1.0000000180025095e-35 0.19610670115534054 -0.65518956863811539 0.6177638751540564 0.28137777461302255 0.30315145101771829 -0.22299655977371982 1.0000000180025095e-35
decision_type=2 2 2 2 2 2 2 2 2 2 2 2 2 2 2 2 2 2 2 2 2 2 2 2 2 2 2
left_child=1 2 14 12 -4 6 7 8 -6 13 -8 -11 -3 -10 15 17 -7 18 25 20 -2 -14 24 -24 -23 -1 -26
right_child=19 3 4 -5 5 16 10 -9 9 11 -12 -13 21 -15 -16 -17 -18 -19 -20 -21 -22 22 23 -25 26 -27 -28
leaf_value=0.10163852771882385 0.088003422135762788 0.012283247703267976 0.039491951472191721 0.074251236344339736 0.063702762231142504 -0.065052980185808879 0.099482660857876673 -0.12594011936935509 -0.037838880800805497 0.08793045255405689 -0.0044716246762131328 -0.013742730195296787 -0.10843052819688846 -0.12504277925360482 -0.0054645869811407203 0.21603276108380998 -0.11228448274742453 0.058972085427329707 0.087647673150015926 0.10499042077265336 0.10159461484190219 -0.10194781087613264 -0.10219557878766537 -0.10334205757948089 -0.10131979226114146 0.10183870002653655 -0.10109962872684877
leaf_weight=0.59378855302929912 0.29986308608204126 0.73987665306776795 3.535810377448807 0.83203621860593546 3.0722725018859043 0.79964942671358508 1.8574801757931698 2.1150263473391524 2.0428765099495534 1.5584153104573619 2.4519201042130589 1.9808901790529359 1.228095394559205 2.0108841769397259 0.38185688480734814 0.51364629715681065 1.4162631100043654 0.35180223733187377 0.35606341250240803 0.86710208654403576 0.36822870466858149 0.35866821277886496 0.48439697828143835 0.37705366034060717 0.26895438320934817 0.36746755708008993 0.31896329671144441
leaf_count=38 20 8 23 16 26 25 17 23 31 13 26 33 26 13 17 4 33 22 22 22 24 24 30 16 22 21 30
internal_value=-0.000651694 -0.00584381 0.00281152 -0.0535643 -0.00819459 -0.0169283 -0.00677416 -0.0226591 -0.00217763 -0.0288339 0.0403358 0.0310257 -0.0817283 -0.0810967 0.100836 0.119432 -0.0952402 0.0897052 0.0979127 0.100858 0.0954944 -0.104638 -0.102062 -0.102697 -0.101484 0.101715 -0.1012
internal_weight=31.5494 30.0142 25.4061 4.60804 22.8415 19.3057 17.0898 12.7804 10.6653 7.59307 4.3094 3.53931 3.77601 4.05376 2.56462 2.18277 2.21591 1.66912 1.31732 1.53519 0.668092 3.03613 1.80804 0.861451 0.946586 0.961256 0.587918
internal_count=625 559 387 172 263 240 182 139 116 90 43 46 156 44 124 107 58 103 81 66 44 148 122 46 76 59 52
is_linear=0
shrinkage=0.1


Tree=38
num_leaves=26
num_cat=0
split_feature=1 4 3 19 36 36 22 36 22 20 27 36 3 1 19 4 29 0 19 25 16 25 36 6 18
split_gain=1.57079 1.96837 1.81805 2.64404 1.3428 1.23177 1.37533 1.02344 1.47803 1.29716 1.09934 1.09291 0.862147 0.663264 0.647846 0.624613 1.39208 0.718018 0.543345 0.131744 0.0384879 0.00875853 0.000612333 0.000114868 2.11396e-05
threshold=-1.3824082741011838 -1.1874796673704238 -1.0466013582407303 -0.48607056516943886 1.56446235996344 -0.80318663495443687 0.66297606172964207 -0.77352149484583388 -0.39782884072835767 -0.2132779879659403 -2.0637673840368254 -0.092150307976358869 -1.8183073817022748 0.17192546822531615 -0.33574256208617076 0.24809950832332348 -0.53739026086698682 -0.15583407979817951 -0.072668556690451816 -0.23601683326224612 1.0000000180025095e-35 -1.0813286289375048 -1.3186184443414137 -1.0000000180025095e-35 0.79454025373726112
decision_type=2 2 2 2 2 2 2 2 2 2 2 2 2 2 2 2 2 2 2 2 2 2 2 2 2
left_child=-1 12 -3 4 5 -4 15 21 14 -10 -11 -12 -2 20 -9 17 -17 -7 -16 -20 -13 -5 -23 -24 -25
right_child=1 2 3 7 -6 6 -8 8 9 10 11 13 -14 -15 18 16 -18 -19 19 -21 -22 22 23 24 -26
leaf_value=0.11670055801791906 -0.018547890382814278 0.087354696667237802 -0.03140568602675993 -0.084581177795946191 -0.028165864749861848 0.054092790783414883 -0.030070491695650362 -0.16099793272670881 0.089685335675446773 0.08225459198949267 0.060469815982615749 -0.12341851499044867 -0.12376705976715166 -0.0082621787014488593 0.02949949634260108 0.11568329022289899 -0.024790604767205175 0.14324690016418637 -0.11548198590951074 -0.056848049195304964 -0.094803197588495203 -0.10594223965257532 -0.10356038955111686 -0.10100182801466118 -0.10221134566086326
leaf_weight=1.0990867381915475 1.3501354297623041 2.3767763581127026 1.7309617493301619 0.2650565188378099 3.3852591300383201 1.513167303055525 1.354130928404629 0.78979589417576823 1.3486867016181419 0.82218980696053279 0.76548622455448612 0.93116144835943415 1.8400538237765456 1.002598490566015 0.56093308795243579 1.4030280392616976 1.4189025787636649 2.2414826611057022 0.7499115271493797 0.78365748468787078 0.94913692213594913 0.86528069805353891 0.45856159925460815 0.37630887236446897 0.23457948956638575
leaf_count=15 31 25 34 12 28 25 27 7 24 19 28 12 28 28 14 30 37 27 19 29 32 23 16 39 16
internal_value=-0.000682271 -0.00505307 0.00393616 -0.00434212 0.026032 0.0450219 0.061703 -0.0406878 -0.0252852 0.00372688 -0.0222051 -0.0457459 -0.0792367 -0.073949 -0.083819 0.0805994 0.0450512 0.107317 -0.0547163 -0.0855199 -0.108974 -0.101629 -0.103964 -0.102364 -0.101466
internal_weight=30.6163 29.5172 26.3271 23.9503 13.0469 9.66167 7.93071 10.9033 8.70356 5.81926 4.47057 3.64838 3.19019 2.8829 2.8843 6.57658 2.82193 3.75465 2.0945 1.53357 1.8803 2.19979 1.93473 1.06945 0.610888
internal_count=625 610 551 526 208 180 146 318 212 143 119 100 59 72 69 119 67 52 62 48 44 106 94 71 55
is_linear=0
shrinkage=0.1


Tree=39
num_leaves=28
num_cat=0
split_feature=6 11 1 4 3 19 36 19 23 36 1 3 1 0 25 29 18 36 19 22 3 36 29 36 29 0 0
split_gain=1.45067 2.07961 1.57001 1.41192 1.72877 1.48923 1.64578 1.33229 1.0862 1.00347 0.841509 0.599567 0.870783 0.480661 0.000117098 7.94425e-05 8.57136e-06 4.13894e-06 2.85175e-06 2.6592e-06 2.6963e-06 1.06113e-06 5.84847e-07 5.61315e-07 3.34269e-07 3.06163e-07 8.95853e-08
threshold=1.0000000180025095e-35 1.0000000180025095e-35 -1.3824082741011838 -1.1874796673704238 -0.84973757674543837 -0.4296975640132133 0.90626706380381072 -0.52365256594025567 0.46830158961458551 -0.74014821222365546 -0.55390459898229449 0.48893613742254666 -0.19304822143400849 -0.055807111390245141 -1.13190283893517 3.4130605249149011 1.4399482363029901 -0.75312671102116935 -0.22299655977371982 -0.069943689059521724 0.032212164353469172 0.014458789288933129 -0.51005455230465679 0.060810570708625312 -0.53739026086698682 -0.46978439339656042 0.28137777461302255
decision_type=2 2 2 2 2 2 2 2 2 2 2 2 2 2 2 2 2 2 2 2 2 2 2 2 2 2 2
left_child=1 18 -3 -4 -5 6 9 10 11 -6 -2 12 -7 -11 -9 16 17 25 21 -19 -21 24 -23 -20 -1 -16 -27
right_child=7 2 3 4 5 8 -8 14 -10 13 -12 -13 -14 -15 15 -17 -18 19 23 20 -22 22 -24 -25 -26 26 -28
leaf_value=0.10131174532775807 0.058419457079853923 0.12553995665715709 -0.082433068502596324 0.076577763617853095 -0.010177269339243124 -0.093219479549937687 -0.023222692416142717 -0.10339185649003078 0.029670721491401542 0.12868455951655905 -0.054234936302691432 -0.12377835019349477 0.0057709411538232544 0.051679674482255245 -0.10104068055934962 -0.10302250876241431 -0.10175433782853749 -0.1010565819787651 0.10161055858714425 -0.10122081750731493 -0.10165137951649304 0.10147154694002425 0.10166209032390805 0.10178082645440574 0.10144429934051585 -0.10084615097776728 -0.10094201822355174
leaf_weight=0.31372885033488285 1.2825949350371959 0.95695349574089661 2.140119846910248 2.7507896423339977 1.4853925947100064 1.8992208736017344 5.3062295690178871 0.37964046839624677 1.4465129710733888 1.5752333998680255 1.3727674605324862 1.4173810342326758 1.6700381552800192 1.669895145110772 0.19609301816672087 0.28910553827881802 0.27232573833316553 0.34911371115595136 0.34524788893759861 0.34138021292164789 0.25340849254280329 0.32958761509507895 0.31507760193198919 0.44084127806127071 0.48333684075623762 0.22372061619535122 0.17273821122944355
leaf_count=25 17 6 13 17 24 31 34 15 22 16 28 22 25 26 20 11 17 35 23 30 17 24 20 26 35 27 19
internal_value=-0.000684959 0.0094252 0.000228767 -0.00538511 0.00319376 -0.00906277 0.0150114 -0.0490319 -0.0466223 0.0578986 0.000179465 -0.0687533 -0.0469024 0.089059 -0.101776 -0.101483 -0.101237 -0.101146 0.101553 -0.101276 -0.101404 0.101469 0.101565 0.101706 0.101392 -0.100938 -0.100888
internal_weight=29.6785 24.5456 22.3178 21.3608 19.2207 16.4699 10.0368 5.13289 6.43315 4.73052 2.65536 4.98664 3.56926 3.24513 2.47753 2.09789 1.80878 1.53645 2.22782 0.943902 0.594789 1.44173 0.644665 0.786089 0.797066 0.592552 0.396459
internal_count=625 389 236 230 217 200 100 236 100 66 45 78 56 42 191 176 165 148 153 82 47 104 44 49 60 66 46
is_linear=0
shrinkage=0.1


Tree=40
num_leaves=29
num_cat=0
split_feature=8 25 6 1 4 0 9 5 36 36 19 25 0 36 24 3 3 37 25 19 19 1 29 18 36 3 20 20
split_gain=1.30939 1.06374 1.68283 1.15536 1.42413 1.18598 0.860857 0.695219 1.21588 0.918978 1.22367 0.926372 1.01845 0.850189 0.671287 1.07401 0.473794 0.219801 0.00348606 0.0014772 0.000782064 9.40835e-05 5.37747e-05 2.68563e-06 1.6723e-06 1.61953e-06 5.53229e-07 4.67693e-07
threshold=2.0643401592306136 -1.5220467446314434 -1.0000000180025095e-35 -1.3824082741011838 -1.2423609638255166 -1.3674991969457804 0.72769078964295886 -0.6839355036565492 1.7739724119804485 1.2251673199712931 -1.0310095763462852 0.24082571814431017 0.032679558115815313 0.64298894533995921 1.0000000180025095e-35 0.13720618115095823 -0.36938994989692658 -1.0000000180025095e-35 0.15412707243402721 -0.16662355861749434 -0.6363985682527068 0.41722626364147092 3.4130605249149011 1.3323802392087039 -0.75312671102116935 0.28157295424750567 0.57937688627134187 0.50564154913298998
decision_type=2 2 2 2 2 2 2 2 2 2 2 2 2 2 2 2 2 2 2 2 2 2 2 2 2 2 2 2
left_child=1 -1 3 -3 -5 -6 7 -7 9 10 -9 12 -12 -14 20 19 -13 -8 21 -16 -4 -2 23 24 26 27 -22 -26
right_child=18 2 14 4 5 6 17 8 -10 -11 11 16 13 -15 15 -17 -18 -19 -20 -21 22 -23 -24 -25 25 -27 -28 -29
leaf_value=0.07637143596284493 0.10217793227625034 0.11680526198944725 -0.10506970714494879 -0.10162061869601202 0.10974141640930374 0.05697965530242724 -0.03730844630840225 0.071825661024070175 -0.063927962184322923 0.074254899965880722 0.052132725992373709 -0.1140018829691814 0.018540467085406968 -0.086010245919918044 -0.10996807683324679 0.054273774657917578 -0.027553205172617553 -0.1066570958390229 0.091518939999892232 -0.10130046106298569 -0.1010027764229901 0.10426077282267004 -0.10282016307337541 -0.10143650124225281 -0.10114864683732556 -0.10138259112388964 -0.10076830546708888 -0.10093276351825303
leaf_weight=1.5108042005449593 0.48130288813263067 0.82957255654037965 0.94697968289256107 1.3824074789881837 0.99536320194603334 2.2227322123944946 1.0828315475955603 1.8544852547347712 2.6789024202153096 1.9069395372644056 2.4952318966388152 1.1968239964917304 1.5587241947650912 1.5524428775534032 0.40435345098376274 0.89775029569864273 1.3480661045759914 0.7908324059098949 0.36808324512094259 0.38274189084768273 0.216089099179953 0.39473539870232344 0.21906478516757499 0.22024719277396787 0.19691188260912462 0.20768593065440655 0.188335164450109 0.2046415782533586
leaf_count=25 29 7 28 18 6 36 32 27 28 20 28 13 33 16 6 24 29 15 22 34 24 15 9 17 19 17 25 23
internal_value=-0.000659047 -0.00520019 -0.00994377 0.00104905 -0.00350945 0.00338112 -0.00228385 0.00488071 -0.00305549 0.0106334 -0.00149188 -0.0181722 0.00454065 -0.0336293 -0.0688675 -0.0204847 -0.0682087 -0.066579 0.0996852 -0.105753 -0.102834 0.103116 -0.101376 -0.10112 -0.101051 -0.101156 -0.100894 -0.101039
internal_weight=28.7351 27.491 25.9802 21.8954 21.0658 19.6834 18.688 16.8143 14.5916 11.9127 10.0058 8.15129 5.6064 3.11117 4.0848 1.68485 2.54489 1.87366 1.24412 0.787095 2.39996 0.876038 1.45298 1.23391 1.01366 0.609239 0.404424 0.401553
internal_count=625 559 534 308 301 283 277 230 194 166 146 119 77 49 226 64 42 47 66 40 162 44 134 125 108 59 49 42
is_linear=0
shrinkage=0.1


Tree=41
num_leaves=29
num_cat=0
split_feature=8 0 12 0 29 19 1 20 1 20 25 25 24 3 36 33 22 36 18 36 20 36 24 23 19 29 19 16
split_gain=1.171 1.04162 2.31796 2.27328 1.50285 1.14286 1.25467 1.13737 0.962746 1.8517 1.039 1.94664 1.7727 1.20378 0.964291 0.763116 0.637572 0.470923 0.439447 0.434329 0.17453 0.155511 0.106622 0.077032 0.0279757 0.0256157 0.00439739 5.43898e-05
threshold=2.0643401592306136 0.88281620991806065 1.0000000180025095e-35 0.38937244136767263 -0.4915368142463043 -1.1625465790441447 -1.476239636660919 1.08815071252597 -1.0000000180025095e-35 0.82270349882790317 -1.3053001303557359 -0.29381593040243476 -0.2659387552954266 -1.3458343061135742 -0.44349681113762557 1.0000000180025095e-35 1.0000000180025095e-35 0.90626706380381072 -0.71141170558278122 -0.092150307976358869 -1.7322259330159875 0.61146973397456861 -0.044667325883878131 -0.50258785692673313 -0.86189057287760884 -0.39630273280334805 -0.67398056902352388 1.0000000180025095e-35
decision_type=2 2 2 2 2 2 2 2 2 2 2 2 2 2 2 2 2 2 2 2 2 2 2 2 2 2 2 2
left_child=1 3 4 5 -3 -1 -7 8 9 10 -8 21 -13 -14 -10 19 -16 -4 -5 -15 -20 22 -12 -9 -22 -26 27 -2
right_child=26 2 17 18 -6 6 7 23 14 -11 11 12 13 15 16 -17 -18 -19 20 -21 24 -23 -24 -25 25 -27 -28 -29
leaf_value=0.081044942187439406 0.10177400056161037 0.12650107037554201 -0.0051293092179707008 -0.036613626740536219 0.0024905742763738194 0.14012515325616881 0.094301731688768237 -0.11725058009346218 -0.076934629084386946 0.081634322681057983 -0.055588134571915998 0.11214435400756212 0.075557431218713333 -0.034375250794771876 0.10762289845832583 0.0048658417278473684 0.0088324287559247774 -0.1066687754348016 -0.1598942856523054 -0.12163534596215141 -0.10920937285132662 -0.13435115487317953 -0.11326975975805742 -0.072000494257253286 -0.067047659636587403 -0.10014684555278495 0.0886699487800921 0.10340010865192542
leaf_weight=1.5693261623382664 0.3964712442830205 2.3485994436778124 0.83700504573062051 1.1430078996345403 1.6736162733286613 0.54866591747850968 0.56380548700690702 0.80574779910966754 0.55863721715286407 1.5417051864787925 0.58040360501036048 0.96198900742456661 0.78108213562518658 0.86447025043890247 1.6034887148998529 1.1977845579385755 1.1024172268807886 1.0053913369774816 0.5752889439463621 1.6768839308060572 0.92912769410759244 1.5534975742921231 0.71551397209987422 0.7057182849384851 0.43744722940027747 0.50228473730385104 0.31150159612297901 0.42746477108448744
leaf_count=20 28 34 29 18 37 7 9 18 25 29 23 11 20 31 26 26 31 14 4 25 17 11 18 34 17 25 19 19
internal_value=-0.000676265 -0.0048931 0.0323519 -0.015335 0.0749012 -0.00033733 -0.00844016 -0.0137982 -0.00471677 -0.0195416 -0.0370768 -0.0459673 -0.0111193 -0.0373521 0.04268 -0.0609382 0.0673745 -0.0605392 -0.0877956 -0.0919528 -0.111731 -0.113014 -0.0874358 -0.0961229 -0.0969048 -0.0847391 0.0987912 0.102618
internal_weight=27.9183 26.7829 5.86461 20.9183 4.02222 17.3311 15.7618 15.2131 13.7017 10.4371 8.89543 8.33163 5.48221 4.52022 3.26454 3.73914 2.70591 1.8424 3.58716 2.54135 2.44415 2.84942 1.29592 1.51147 1.86886 0.939732 1.13544 0.823936
internal_count=625 559 114 445 71 364 344 337 285 203 174 165 113 102 82 82 57 43 81 56 63 52 41 52 59 42 66 47
is_linear=0
shrinkage=0.1


Tree=42
num_leaves=26
num_cat=0
split_feature=6 11 19 22 0 0 29 25 19 18 1 25 25 29 36 18 4 36 3 21 20 36 4 4 3
split_gain=1.08779 1.79869 1.1905 0.678167 0.674575 1.94953 1.22316 1.13105 1.27819 0.867044 0.705648 0.557388 0.000145623 3.64048e-05 6.29041e-06 4.98118e-06 2.45445e-06 2.31326e-06 2.20674e-06 1.40211e-06 6.39271e-07 4.86669e-07 3.82799e-07 1.23539e-07 1.17629e-07
